'{"type":"LSTM","options":{"inputSize":29,"inputRange":29,"hiddenLayers":[20,20],"outputSize":29,"decayRate":0.999,"smoothEps":1e-8,"regc":0.000001,"clipval":5,"maxPredictionLength":100,"dataFormatter":{"values":["leonhard mondsturm","adalbert brecht-cabana","sarah tausendstern","otto plapper","ludwig hammerstein","hektor cabana","kalle","flavio faltdach","monty münzfach","flitz","bruno plapper","jakob moorstelz","korrin küstenseher","udohr","wilhelm sturmwind","helena sternenfels","gustav nebelkrone","mathilda regenbogen","ethengub aririm","oogana","konrad wolkenschiff","siegfried bergmann","emma silbertau","klaus donnerhall","frieda morgenstern","robert windläufer","gregor felsenstein","hilda waldecho","viktor sturmsänger","berta mondlicht","heinrich seefahrer","else winterwind","karl steinherz","martha regentanz","rolf","theodor blitzfänger","anna sternenstaub","felix wellentanz","clara nebelfänger","walter bergsturm","lotte himmelspfad","siegfried stanzhüter","kerrim rammer","abkort ronstein","ikeb gartentor","richard moorgrim","ibana wehchor","eod antyber","olin wiegendau","yboo marlitz","antenhard weinherz","eugena faube"],"indexTable":{"l":0,"e":1,"o":2,"n":3,"h":4,"a":5,"r":6,"d":7," ":8,"m":9,"s":10,"t":11,"u":12,"b":13,"c":14,"-":15,"p":16,"w":17,"i":18,"g":19,"k":20,"f":21,"v":22,"y":23,"ü":24,"z":25,"j":26,"ä":27,"x":28},"characterTable":{"0":"l","1":"e","2":"o","3":"n","4":"h","5":"a","6":"r","7":"d","8":" ","9":"m","10":"s","11":"t","12":"u","13":"b","14":"c","15":"-","16":"p","17":"w","18":"i","19":"g","20":"k","21":"f","22":"v","23":"y","24":"ü","25":"z","26":"j","27":"ä","28":"x"},"characters":["l","e","o","n","h","a","r","d"," ","m","s","t","u","b","c","-","p","w","i","g","k","f","v","y","ü","z","j","ä","x"],"specialIndexes":[]}},"input":{"rows":30,"columns":29,"weights":{"0":-3.3116209506988525,"1":2.106680393218994,"2":2.018723487854004,"3":2.9765472412109375,"4":0.32062795758247375,"5":6.580042362213135,"6":-2.344345808029175,"7":-2.579148530960083,"8":0.5391668677330017,"9":0.6942138075828552,"10":-3.5921523571014404,"11":-0.0024770479649305344,"12":-1.07996666431427,"13":2.2846567630767822,"14":4.438732624053955,"15":-5.205472469329834,"16":-0.5155113339424133,"17":-1.5622040033340454,"18":-3.049577474594116,"19":3.6869401931762695,"20":-0.7570371031761169,"21":-3.801966905593872,"22":4.662700176239014,"23":1.4972939491271973,"24":0.014896892942488194,"25":0.14721132814884186,"26":-0.300270676612854,"27":-2.0877625942230225,"28":-1.73904287815094,"29":8.30809497833252,"30":2.8200511932373047,"31":-2.252347707748413,"32":-6.395423412322998,"33":-7.890504837036133,"34":-3.881232976913452,"35":5.7826995849609375,"36":2.8135344982147217,"37":-0.7146300077438354,"38":-8.788785934448242,"39":3.960129976272583,"40":-2.53584361076355,"41":5.6230597496032715,"42":-8.72997760772705,"43":-3.447824239730835,"44":-1.0550637245178223,"45":-5.889956951141357,"46":-0.05875121429562569,"47":-1.6918176412582397,"48":-4.507411479949951,"49":4.605325222015381,"50":7.4636759757995605,"51":-4.237986087799072,"52":2.425078868865967,"53":-2.2026236057281494,"54":2.2025694847106934,"55":0.5134698748588562,"56":-5.259364128112793,"57":13.760686874389648,"58":-0.4710622727870941,"59":-1.6863517761230469,"60":-2.5934042930603027,"61":-1.1469675302505493,"62":-0.12247307598590851,"63":0.6751561760902405,"64":0.7953876256942749,"65":1.5252130031585693,"66":0.273331880569458,"67":-1.7230010032653809,"68":0.1093907579779625,"69":-1.6908551454544067,"70":-1.914172887802124,"71":1.0819199085235596,"72":-1.2599563598632812,"73":-0.612485945224762,"74":0.17920111119747162,"75":0.38312405347824097,"76":-0.06086534261703491,"77":0.5735076069831848,"78":-0.24311430752277374,"79":-0.901215672492981,"80":0.5318821668624878,"81":2.9645514488220215,"82":-2.565652370452881,"83":0.8870581388473511,"84":-0.2785959839820862,"85":1.9881008863449097,"86":-0.8302139043807983,"87":4.870642185211182,"88":1.3859022855758667,"89":-1.153747797012329,"90":-1.3975483179092407,"91":-13.765910148620605,"92":5.450875282287598,"93":-6.408083915710449,"94":1.1612036228179932,"95":-0.015612420625984669,"96":1.4296543598175049,"97":-2.850686550140381,"98":4.739448070526123,"99":-11.55362606048584,"100":6.812495708465576,"101":-6.928842544555664,"102":1.9946798086166382,"103":-4.950860500335693,"104":-1.1433016061782837,"105":-2.436845302581787,"106":-6.218971252441406,"107":6.489707946777344,"108":-10.499629974365234,"109":10.838375091552734,"110":1.1239805221557617,"111":2.7107126712799072,"112":-10.828457832336426,"113":1.9820301532745361,"114":-1.196079134941101,"115":2.920976400375366,"116":-2.209144115447998,"117":-9.93867015838623,"118":-7.287898540496826,"119":4.278687000274658,"120":-3.8308424949645996,"121":3.078476667404175,"122":4.872533798217773,"123":2.7115702629089355,"124":-0.6149678230285645,"125":-4.391485691070557,"126":5.036289215087891,"127":3.143500328063965,"128":-1.7717702388763428,"129":1.420796513557434,"130":-2.36428165435791,"131":2.365931510925293,"132":4.207394599914551,"133":-3.4769232273101807,"134":-7.32048225402832,"135":0.604755699634552,"136":2.5627946853637695,"137":4.029253005981445,"138":-1.351486325263977,"139":4.345449447631836,"140":-0.9897306561470032,"141":-1.3723171949386597,"142":-7.769548416137695,"143":-1.8762553930282593,"144":2.6779215335845947,"145":-9.237536430358887,"146":6.9878058433532715,"147":-0.6436882019042969,"148":1.0948574542999268,"149":1.1102861166000366,"150":5.760388374328613,"151":2.000457525253296,"152":1.7230371236801147,"153":3.4434926509857178,"154":-0.8993108868598938,"155":-5.805232048034668,"156":0.7412200570106506,"157":3.596886396408081,"158":-7.989669322967529,"159":-8.478997230529785,"160":3.681990385055542,"161":-4.614614486694336,"162":6.219401836395264,"163":1.735509991645813,"164":0.051066040992736816,"165":2.8450005054473877,"166":-2.9008257389068604,"167":1.5177055597305298,"168":-8.758269309997559,"169":-6.187596321105957,"170":1.7862489223480225,"171":-1.4247455596923828,"172":7.979453086853027,"173":-10.725956916809082,"174":0.36900565028190613,"175":0.0013230782933533192,"176":-1.9476940631866455,"177":1.1024173498153687,"178":-0.4738776385784149,"179":0.466559499502182,"180":1.294999599456787,"181":-0.32140234112739563,"182":-0.11701257526874542,"183":-0.3876124918460846,"184":-0.5120546817779541,"185":0.10205662995576859,"186":-0.23105758428573608,"187":-0.4236803948879242,"188":-0.6855596303939819,"189":-0.1505703330039978,"190":-0.0642872005701065,"191":-0.19462846219539642,"192":-1.2487318515777588,"193":0.30851417779922485,"194":0.043004028499126434,"195":0.7105283141136169,"196":-0.3899509310722351,"197":0.23306669294834137,"198":-0.6428853273391724,"199":0.957183837890625,"200":0.18965351581573486,"201":0.01490615215152502,"202":0.1333378404378891,"203":2.309232711791992,"204":-4.914589881896973,"205":6.704058647155762,"206":-4.048609256744385,"207":-2.7404801845550537,"208":-1.5220056772232056,"209":-2.8665108680725098,"210":-3.3682053089141846,"211":1.1482540369033813,"212":-4.7918243408203125,"213":1.3439903259277344,"214":7.420319557189941,"215":-3.3538780212402344,"216":-1.5346800088882446,"217":4.398209095001221,"218":1.1638765335083008,"219":-0.12724673748016357,"220":1.8225094079971313,"221":0.6053416132926941,"222":-2.0418143272399902,"223":-0.945102334022522,"224":-3.0724146366119385,"225":5.754429817199707,"226":-0.8694419860839844,"227":3.905808687210083,"228":-7.090178489685059,"229":7.241641521453857,"230":3.972425937652588,"231":-2.435673236846924,"232":-4.071986198425293,"233":-7.613852500915527,"234":10.018177032470703,"235":-13.000965118408203,"236":3.254157543182373,"237":-0.5724126100540161,"238":0.11442773789167404,"239":-3.8213980197906494,"240":2.2840635776519775,"241":7.234911918640137,"242":1.4954538345336914,"243":-9.180730819702148,"244":-7.893290996551514,"245":1.6204239130020142,"246":-4.580696105957031,"247":1.3715291023254395,"248":12.498414039611816,"249":-0.42239463329315186,"250":7.626163482666016,"251":-0.899958610534668,"252":-3.9601426124572754,"253":-0.9670800566673279,"254":-3.3977582454681396,"255":-1.0443077087402344,"256":-6.422636032104492,"257":5.3468241691589355,"258":-6.478341579437256,"259":4.167835235595703,"260":1.734073519706726,"261":0.4201592803001404,"262":1.1685007810592651,"263":3.0312023162841797,"264":-0.024481307715177536,"265":-0.5569450855255127,"266":0.2063220590353012,"267":-0.6589584946632385,"268":0.11227041482925415,"269":0.31872233748435974,"270":-0.11871878802776337,"271":0.10533919930458069,"272":-0.10711884498596191,"273":0.0935874953866005,"274":0.5779898762702942,"275":0.05020465329289436,"276":-0.43078386783599854,"277":-0.23326818645000458,"278":0.013290328904986382,"279":0.33907175064086914,"280":-0.09691787511110306,"281":0.0026549934409558773,"282":-1.1342264413833618,"283":0.31289640069007874,"284":1.1100726127624512,"285":-0.11313153803348541,"286":0.1194811463356018,"287":1.120327353477478,"288":-0.28980305790901184,"289":0.4267960786819458,"290":-8.601502418518066,"291":-4.939672946929932,"292":-3.067192554473877,"293":-10.707763671875,"294":-2.8438146114349365,"295":1.6446783542633057,"296":17.30211067199707,"297":0.6318411231040955,"298":5.339290142059326,"299":4.067716121673584,"300":3.6102757453918457,"301":-5.655941009521484,"302":-1.6100605726242065,"303":2.8945767879486084,"304":3.6488006114959717,"305":-6.951854705810547,"306":9.08340072631836,"307":2.8334853649139404,"308":4.353215217590332,"309":4.932197093963623,"310":1.5274426937103271,"311":0.7318620085716248,"312":-6.812276840209961,"313":-4.822173118591309,"314":4.805943012237549,"315":0.2480892688035965,"316":-5.2316365242004395,"317":-1.784998893737793,"318":7.359325408935547,"319":2.6303842067718506,"320":0.9932524561882019,"321":-11.579374313354492,"322":-3.335855484008789,"323":0.5353802442550659,"324":1.0035125017166138,"325":-7.267765045166016,"326":-4.5401716232299805,"327":-8.30640697479248,"328":2.8182156085968018,"329":-4.6811699867248535,"330":-3.9923229217529297,"331":1.5599862337112427,"332":2.4075140953063965,"333":-7.530043601989746,"334":-0.2421022206544876,"335":7.066816806793213,"336":-9.619691848754883,"337":-1.92131507396698,"338":-2.5679774284362793,"339":7.984781265258789,"340":3.583082675933838,"341":-5.865192413330078,"342":-1.260314702987671,"343":2.7809088230133057,"344":-5.681191444396973,"345":3.483177661895752,"346":-1.9266090393066406,"347":-0.8637852668762207,"348":-2.5742974281311035,"349":-1.429426670074463,"350":1.0938822031021118,"351":0.038024742156267166,"352":-0.5441626906394958,"353":-1.0118438005447388,"354":-0.6709184050559998,"355":1.053107738494873,"356":-0.25692006945610046,"357":-0.13593898713588715,"358":2.2346909046173096,"359":0.33339574933052063,"360":-0.3447672128677368,"361":1.1645991802215576,"362":-4.533517360687256,"363":1.4260615110397339,"364":-1.1057145595550537,"365":-0.49184221029281616,"366":0.2080502063035965,"367":-0.9533119797706604,"368":-2.4874649047851562,"369":-0.3985186219215393,"370":-0.09651309251785278,"371":2.8926565647125244,"372":-1.184580683708191,"373":-2.2089507579803467,"374":-1.2027043104171753,"375":-0.24780769646167755,"376":0.6287660598754883,"377":3.017049551010132,"378":3.3987534046173096,"379":3.489990472793579,"380":4.757695198059082,"381":8.77606201171875,"382":-2.1433568000793457,"383":-0.6847885251045227,"384":-5.384064197540283,"385":-0.2568823993206024,"386":5.850770473480225,"387":-11.886582374572754,"388":-0.05936949700117111,"389":3.2594122886657715,"390":0.33951428532600403,"391":3.6738879680633545,"392":-12.30787467956543,"393":-12.298958778381348,"394":6.207652568817139,"395":-8.556982040405273,"396":-0.8849056363105774,"397":4.644284248352051,"398":9.15430736541748,"399":2.854285478591919,"400":-3.929762601852417,"401":-13.588594436645508,"402":5.254201412200928,"403":-11.877788543701172,"404":-0.7006467580795288,"405":3.3467369079589844,"406":7.030088424682617,"407":-0.34233176708221436,"408":-1.8605518341064453,"409":-2.2369515895843506,"410":-5.327136039733887,"411":4.373410701751709,"412":10.415413856506348,"413":-1.9393987655639648,"414":7.692732810974121,"415":1.1671937704086304,"416":2.2105295658111572,"417":4.827876567840576,"418":-7.856114387512207,"419":5.241236209869385,"420":6.942943096160889,"421":11.143916130065918,"422":-2.5022776126861572,"423":4.037631511688232,"424":4.960597991943359,"425":-0.7734758257865906,"426":2.7924416065216064,"427":1.7813551425933838,"428":1.1522080898284912,"429":-14.382451057434082,"430":8.924379348754883,"431":-2.8913660049438477,"432":13.324384689331055,"433":5.710590839385986,"434":-3.5863990783691406,"435":1.9670472145080566,"436":1.73182213306427,"437":-4.126606464385986,"438":20.87438201904297,"439":-3.8329224586486816,"440":17.785505294799805,"441":6.202342987060547,"442":-4.575274467468262,"443":-2.1784610748291016,"444":6.088283538818359,"445":-6.918676853179932,"446":14.03746223449707,"447":5.585010528564453,"448":-2.2806084156036377,"449":2.6351897716522217,"450":3.88407826423645,"451":2.5325779914855957,"452":-6.912405967712402,"453":-9.65149211883545,"454":0.7680243253707886,"455":-2.1998329162597656,"456":1.790335774421692,"457":8.854068756103516,"458":-9.375493049621582,"459":16.292261123657227,"460":-7.859585762023926,"461":3.2607858180999756,"462":-2.7640469074249268,"463":-5.749997138977051,"464":23.081401824951172,"465":5.2038702964782715,"466":-24.053144454956055,"467":-3.4181413650512695,"468":-48.53129959106445,"469":3.241410255432129,"470":-24.194929122924805,"471":-16.245874404907227,"472":-30.721925735473633,"473":36.67406463623047,"474":27.02056312561035,"475":40.7513542175293,"476":3.1946771144866943,"477":19.203397750854492,"478":-6.89475154876709,"479":8.75410270690918,"480":-35.095523834228516,"481":-49.86530303955078,"482":-9.639665603637695,"483":-15.030356407165527,"484":30.461217880249023,"485":-1.1872955560684204,"486":-0.0037040188908576965,"487":-7.568663120269775,"488":-12.461451530456543,"489":-11.963010787963867,"490":-0.1764138638973236,"491":20.675884246826172,"492":8.385717391967773,"493":-2.939518451690674,"494":0.5626656413078308,"495":-1.606345772743225,"496":-2.666718006134033,"497":-4.481330394744873,"498":-3.038285970687866,"499":8.682914733886719,"500":-1.3899980783462524,"501":-25.698945999145508,"502":-11.969271659851074,"503":-11.470267295837402,"504":-9.905835151672363,"505":-5.328197956085205,"506":4.757506370544434,"507":-21.755605697631836,"508":-37.703895568847656,"509":-8.479676246643066,"510":3.1889543533325195,"511":3.6536672115325928,"512":-9.572220802307129,"513":0.5379246473312378,"514":-18.508825302124023,"515":11.219095230102539,"516":10.423949241638184,"517":-9.05207347869873,"518":6.270941257476807,"519":-21.651987075805664,"520":-7.133396625518799,"521":2.565434694290161,"522":-1.1286494731903076,"523":-3.12713360786438,"524":14.915568351745605,"525":-13.18479061126709,"526":-1.5936540365219116,"527":-0.42439326643943787,"528":0.5675275325775146,"529":12.506816864013672,"530":-8.103569030761719,"531":-4.665621757507324,"532":-5.521503448486328,"533":-4.8503031730651855,"534":-14.126228332519531,"535":-4.605856895446777,"536":-5.615851402282715,"537":-1.1182984113693237,"538":-13.796995162963867,"539":13.527384757995605,"540":2.7454771995544434,"541":-0.2956034541130066,"542":-11.789488792419434,"543":-1.613768219947815,"544":-3.908454418182373,"545":-2.2438693046569824,"546":-2.331054210662842,"547":8.46858024597168,"548":-2.8082642555236816,"549":-12.963153839111328,"550":1.1058005094528198,"551":-8.566288948059082,"552":-2.366912603378296,"553":-2.53067684173584,"554":0.12448909878730774,"555":-1.2904587984085083,"556":2.399003744125366,"557":-2.094658613204956,"558":-9.675079345703125,"559":-3.5484232902526855,"560":1.0229036808013916,"561":3.9897241592407227,"562":6.576397895812988,"563":3.1379966735839844,"564":-4.2246012687683105,"565":-4.563181400299072,"566":-1.342215657234192,"567":5.974854946136475,"568":-5.150771141052246,"569":2.709303140640259,"570":-5.780938148498535,"571":-4.688778400421143,"572":-0.41639432311058044,"573":2.0798065662384033,"574":-0.0056188046000897884,"575":-0.46620938181877136,"576":0.20187756419181824,"577":0.12111213058233261,"578":-3.7706189155578613,"579":2.2234811782836914,"580":0.5013514757156372,"581":-6.829737663269043,"582":-12.93377685546875,"583":-6.2781500816345215,"584":3.527637243270874,"585":-2.9985647201538086,"586":-0.6261433362960815,"587":-4.96765661239624,"588":15.647692680358887,"589":14.173027038574219,"590":1.1431920528411865,"591":-0.8259992003440857,"592":-2.9384899139404297,"593":-16.59406852722168,"594":-3.395120620727539,"595":3.53018856048584,"596":9.610889434814453,"597":0.5650033950805664,"598":15.672057151794434,"599":-1.570969820022583,"600":-6.358004570007324,"601":6.500187397003174,"602":-11.913897514343262,"603":-6.60206937789917,"604":4.998024940490723,"605":-4.261776924133301,"606":-5.102781295776367,"607":3.890108823776245,"608":3.059518337249756,"609":14.17498779296875,"610":-0.8634842038154602,"611":-6.925613880157471,"612":-5.603433132171631,"613":2.0876028537750244,"614":-9.323336601257324,"615":5.4626593589782715,"616":-11.31031608581543,"617":3.03883695602417,"618":8.801603317260742,"619":9.379842758178711,"620":6.125102996826172,"621":-0.3205786943435669,"622":2.06148099899292,"623":15.37900161743164,"624":-4.543354511260986,"625":-8.659937858581543,"626":9.460882186889648,"627":4.199341773986816,"628":5.256545543670654,"629":0.04251725599169731,"630":-5.036528587341309,"631":-2.7407877445220947,"632":-4.1612982749938965,"633":5.848552227020264,"634":-6.074417591094971,"635":4.384488582611084,"636":-2.996938705444336,"637":2.810453176498413,"638":1.0430835485458374,"639":-2.72782826423645,"640":5.439000606536865,"641":3.361569881439209,"642":6.823798656463623,"643":1.5903728008270264,"644":-3.9108548164367676,"645":-2.2642722129821777,"646":0.7541006803512573,"647":-5.151312828063965,"648":8.986798286437988,"649":2.8390138149261475,"650":1.0763287544250488,"651":-3.030017852783203,"652":0.4906487762928009,"653":1.980804204940796,"654":0.4459613263607025,"655":1.0930285453796387,"656":-4.188199996948242,"657":4.527732849121094,"658":2.5978567600250244,"659":-5.937145709991455,"660":-7.657255172729492,"661":-7.603984832763672,"662":-4.785163402557373,"663":-3.0387465953826904,"664":-4.862117767333984,"665":9.582435607910156,"666":-11.677315711975098,"667":4.39215612411499,"668":2.4339659214019775,"669":-4.743910789489746,"670":7.929993629455566,"671":-12.03476333618164,"672":-0.9895691275596619,"673":0.7365597486495972,"674":-17.408100128173828,"675":8.5792875289917,"676":-2.259516716003418,"677":-0.6432947516441345,"678":-24.296634674072266,"679":19.805545806884766,"680":-8.966348648071289,"681":40.35591506958008,"682":27.44647216796875,"683":0.5797118544578552,"684":18.7271728515625,"685":-12.335541725158691,"686":13.9197416305542,"687":3.703681707382202,"688":7.768415927886963,"689":3.5323052406311035,"690":10.709638595581055,"691":4.909958362579346,"692":-13.164580345153809,"693":43.07406997680664,"694":16.485944747924805,"695":-19.205806732177734,"696":-6.5811614990234375,"697":5.887974739074707,"698":12.0807523727417,"699":-8.922340393066406,"700":-1.6494874954223633,"701":16.581567764282227,"702":-25.048141479492188,"703":-9.479517936706543,"704":-9.14588451385498,"705":-7.87598180770874,"706":-1.0663522481918335,"707":5.254384994506836,"708":9.614436149597168,"709":-22.903369903564453,"710":3.0525929927825928,"711":11.620149612426758,"712":21.787912368774414,"713":-26.315885543823242,"714":-5.203601360321045,"715":-7.088373184204102,"716":7.037217617034912,"717":19.804292678833008,"718":2.3023886680603027,"719":9.904891014099121,"720":-19.655542373657227,"721":-14.265364646911621,"722":3.2968268394470215,"723":10.857003211975098,"724":-14.792952537536621,"725":-2.8274118900299072,"726":-6.893618583679199,"727":22.30120849609375,"728":-4.555052280426025,"729":-0.1480254977941513,"730":6.146666526794434,"731":25.466890335083008,"732":-12.068779945373535,"733":20.055660247802734,"734":7.272008895874023,"735":1.5516493320465088,"736":7.91609001159668,"737":21.761070251464844,"738":-9.007821083068848,"739":-13.731208801269531,"740":16.059463500976562,"741":-1.690119981765747,"742":17.047901153564453,"743":13.457375526428223,"744":22.057071685791016,"745":-8.138188362121582,"746":-17.29642105102539,"747":13.577754020690918,"748":-14.135693550109863,"749":1.3424595594406128,"750":-10.603312492370605,"751":21.202892303466797,"752":20.813404083251953,"753":-33.2191276550293,"754":5.917164325714111,"755":3.8448970317840576,"756":0.7865043878555298,"757":6.490214824676514,"758":4.572082996368408,"759":11.084917068481445,"760":-12.838719367980957,"761":-1.4615707397460938,"762":-21.136472702026367,"763":9.763827323913574,"764":-15.022648811340332,"765":-4.4536261558532715,"766":3.846463680267334,"767":14.838775634765625,"768":-10.581929206848145,"769":-9.261628150939941,"770":5.2592387199401855,"771":-10.108650207519531,"772":-7.5932745933532715,"773":-4.552657604217529,"774":8.520049095153809,"775":4.679726600646973,"776":-5.764637470245361,"777":-2.2038023471832275,"778":-1.843971610069275,"779":-0.8849806189537048,"780":-6.028753280639648,"781":-4.905871391296387,"782":-8.2660551071167,"783":10.60221004486084,"784":9.420632362365723,"785":-6.614161968231201,"786":13.894183158874512,"787":7.66886043548584,"788":-1.4882093667984009,"789":26.97434425354004,"790":-29.520727157592773,"791":22.069072723388672,"792":14.125916481018066,"793":-24.69258689880371,"794":42.942901611328125,"795":-2.092900276184082,"796":-22.691335678100586,"797":8.397314071655273,"798":20.244503021240234,"799":-13.426067352294922,"800":44.162635803222656,"801":-0.3613152801990509,"802":9.728550910949707,"803":-31.542861938476562,"804":15.991584777832031,"805":-29.08868980407715,"806":-24.831619262695312,"807":-13.615503311157227,"808":-16.223350524902344,"809":18.409427642822266,"810":-9.414868354797363,"811":8.413512229919434,"812":1.8768266439437866,"813":2.8487744331359863,"814":16.847871780395508,"815":-12.54820442199707,"816":18.339019775390625,"817":-17.230266571044922,"818":11.596394538879395,"819":10.180219650268555,"820":-2.3779239654541016,"821":19.01109504699707,"822":-5.902772903442383,"823":2.1291122436523438,"824":-13.956500053405762,"825":12.513016700744629,"826":19.49027442932129,"827":0.7563893795013428,"828":-18.444612503051758,"829":20.8654727935791,"830":-13.341489791870117,"831":-17.000484466552734,"832":4.942208766937256,"833":0.5089729428291321,"834":16.156238555908203,"835":6.574525356292725,"836":3.3798980712890625,"837":5.965518951416016,"838":19.26589012145996,"839":13.078658103942871,"840":-7.930384635925293,"841":-20.160375595092773,"842":42.57085418701172,"843":35.8436393737793,"844":18.439903259277344,"845":-2.4249610900878906,"846":21.794496536254883,"847":-43.03165817260742,"848":0.40976643562316895,"849":-50.67744445800781,"850":-33.549705505371094,"851":32.43846130371094,"852":68.364013671875,"853":7.653334140777588,"854":1.4508103132247925,"855":30.378177642822266,"856":22.237449645996094,"857":-29.32346534729004,"858":-46.22795867919922,"859":-21.997114181518555,"860":-17.231422424316406,"861":25.270570755004883,"862":-18.064252853393555,"863":-0.5811966061592102,"864":8.399075508117676,"865":-5.948850631713867,"866":6.426429271697998,"867":17.885452270507812,"868":-4.51396369934082,"869":25.099197387695312}},"hiddenLayers":[{"inputMatrix":{"rows":20,"columns":29,"weights":{"0":1.2405821084976196,"1":1.8779164552688599,"2":0.4736712574958801,"3":0.14840492606163025,"4":-2.1099560260772705,"5":-0.8822497725486755,"6":-0.25319021940231323,"7":2.134922742843628,"8":-0.5325651168823242,"9":-0.957502007484436,"10":2.464888095855713,"11":-0.41180169582366943,"12":0.9154566526412964,"13":-1.2877157926559448,"14":-0.05324862524867058,"15":0.6876826286315918,"16":0.04414184391498566,"17":0.10581302642822266,"18":-1.1418554782867432,"19":0.019112125039100647,"20":1.187414526939392,"21":1.8775776624679565,"22":-0.2318878173828125,"23":0.15829065442085266,"24":-1.4176908731460571,"25":2.04781436920166,"26":-0.5421977043151855,"27":-1.2374123334884644,"28":0.28322815895080566,"29":2.262924909591675,"30":0.2901037037372589,"31":-6.848090648651123,"32":0.9198492169380188,"33":-2.6824686527252197,"34":0.7984737157821655,"35":-1.2680152654647827,"36":-0.45201191306114197,"37":1.2512751817703247,"38":-2.8825228214263916,"39":-5.211279392242432,"40":-1.6033903360366821,"41":6.644076347351074,"42":1.1309882402420044,"43":-2.0309488773345947,"44":-3.8588826656341553,"45":-1.0097359418869019,"46":-0.22749264538288116,"47":-1.7215096950531006,"48":-0.8624922037124634,"49":2.436650037765503,"50":-0.546089231967926,"51":1.1868122816085815,"52":1.5179911851882935,"53":-1.3667899370193481,"54":3.1071581840515137,"55":3.656769037246704,"56":0.6213462948799133,"57":-4.368250370025635,"58":1.0928783416748047,"59":-1.0079084634780884,"60":1.385857343673706,"61":2.9799187183380127,"62":3.9025049209594727,"63":1.0242905616760254,"64":0.595198392868042,"65":1.5923423767089844,"66":-1.585251808166504,"67":-0.8991479873657227,"68":5.2620391845703125,"69":2.103093147277832,"70":-1.622723937034607,"71":-3.5739574432373047,"72":4.718832015991211,"73":4.833504676818848,"74":4.336249828338623,"75":1.8396528959274292,"76":-0.37288498878479004,"77":0.46510571241378784,"78":-0.4676576554775238,"79":1.5096749067306519,"80":-4.340889930725098,"81":-1.21953547000885,"82":4.209806442260742,"83":-1.186497449874878,"84":-2.5918991565704346,"85":4.287397861480713,"86":-0.02639729157090187,"87":-1.2046641111373901,"88":-0.10343649983406067,"89":2.344536304473877,"90":0.3352168798446655,"91":0.6250131726264954,"92":0.06406273692846298,"93":3.865943670272827,"94":0.12512294948101044,"95":-0.1293313205242157,"96":-0.25619471073150635,"97":1.7727680206298828,"98":0.8190810084342957,"99":-1.7797969579696655,"100":-0.7614442110061646,"101":3.16202974319458,"102":4.117988109588623,"103":0.9587460160255432,"104":-0.03815104067325592,"105":-0.9044519066810608,"106":0.498331218957901,"107":-1.3669350147247314,"108":-0.08014530688524246,"109":-1.6676875352859497,"110":1.7475123405456543,"111":3.261946678161621,"112":-2.991518020629883,"113":-0.27100810408592224,"114":-1.6660584211349487,"115":3.3272314071655273,"116":-2.102950096130371,"117":-5.005619049072266,"118":1.0145299434661865,"119":1.2994898557662964,"120":1.4728646278381348,"121":0.6303958892822266,"122":1.3058234453201294,"123":-3.8218071460723877,"124":-2.304964542388916,"125":-3.4079606533050537,"126":-0.2620339095592499,"127":2.7557315826416016,"128":-0.8277332186698914,"129":-8.162108421325684,"130":-1.0237579345703125,"131":-0.4266446530818939,"132":-0.7193254232406616,"133":-0.261764258146286,"134":-1.7338887453079224,"135":2.5854649543762207,"136":4.112614631652832,"137":-1.456113338470459,"138":-0.36995556950569153,"139":-0.5813984274864197,"140":1.503572940826416,"141":2.3729002475738525,"142":-1.7244642972946167,"143":-3.6658082008361816,"144":1.4792394638061523,"145":-3.8896872997283936,"146":-2.013636589050293,"147":-0.6638025641441345,"148":-2.1063473224639893,"149":1.7130165100097656,"150":0.9133475422859192,"151":4.637231826782227,"152":1.0453749895095825,"153":0.2720217704772949,"154":-0.5116849541664124,"155":3.581822395324707,"156":0.23513206839561462,"157":-2.2062065601348877,"158":1.819932222366333,"159":0.55613112449646,"160":4.169583320617676,"161":1.1682898998260498,"162":2.9139649868011475,"163":0.42110034823417664,"164":1.608357310295105,"165":-1.694521188735962,"166":0.5368168354034424,"167":-2.3994767665863037,"168":-1.7412350177764893,"169":-0.9883103370666504,"170":-1.1185966730117798,"171":-4.497381210327148,"172":4.457249641418457,"173":-2.504213809967041,"174":-0.7338153123855591,"175":3.9323506355285645,"176":4.4697771072387695,"177":0.6714184880256653,"178":-0.6756234765052795,"179":-0.9806607961654663,"180":3.1288135051727295,"181":2.3288114070892334,"182":-0.2287895381450653,"183":-2.2028636932373047,"184":6.595104217529297,"185":1.7058213949203491,"186":-4.1586222648620605,"187":-5.191010475158691,"188":1.0090250968933105,"189":2.573136568069458,"190":2.658867359161377,"191":-3.0321719646453857,"192":0.6440402269363403,"193":-0.5493080019950867,"194":-3.261505365371704,"195":0.3319717049598694,"196":-3.65047025680542,"197":0.2608362138271332,"198":-0.2956483066082001,"199":-2.50689435005188,"200":-3.686655044555664,"201":-3.1377124786376953,"202":2.3975577354431152,"203":0.23742306232452393,"204":4.890953540802002,"205":5.3357462882995605,"206":1.213549256324768,"207":2.6124179363250732,"208":-1.7418731451034546,"209":1.8514443635940552,"210":1.210862636566162,"211":-3.504441499710083,"212":-1.7888548374176025,"213":3.0328099727630615,"214":4.276056289672852,"215":-1.9279404878616333,"216":-2.2086503505706787,"217":5.644458770751953,"218":4.695685386657715,"219":0.6265740394592285,"220":3.029888391494751,"221":1.9813318252563477,"222":-0.8254498243331909,"223":-2.4137697219848633,"224":1.7205791473388672,"225":-1.8997511863708496,"226":-0.33946359157562256,"227":0.010061800479888916,"228":-1.45257568359375,"229":0.29172050952911377,"230":1.8998620510101318,"231":-4.049548625946045,"232":-0.06621760129928589,"233":-1.2976642847061157,"234":5.631986618041992,"235":-1.2536364793777466,"236":-2.5074527263641357,"237":-1.9680142402648926,"238":-0.30562496185302734,"239":-0.40507182478904724,"240":-0.2168847918510437,"241":-0.6470441222190857,"242":2.3125462532043457,"243":1.5997182130813599,"244":0.7758186459541321,"245":-4.142975807189941,"246":-0.009735974483191967,"247":0.011754992417991161,"248":-0.6160502433776855,"249":-2.0957019329071045,"250":2.4576282501220703,"251":-2.9683403968811035,"252":0.46650075912475586,"253":-1.198744535446167,"254":2.3260838985443115,"255":-0.03135956451296806,"256":-0.25521397590637207,"257":-1.4190925359725952,"258":0.325825959444046,"259":-2.409620761871338,"260":0.1629428267478943,"261":0.8572640419006348,"262":1.4736226797103882,"263":1.9062832593917847,"264":-0.428531289100647,"265":4.0301079750061035,"266":0.5078889727592468,"267":-0.7460145950317383,"268":-3.0285534858703613,"269":-0.687642514705658,"270":-1.5313630104064941,"271":-0.42706409096717834,"272":2.181957721710205,"273":0.4324246346950531,"274":-0.409529447555542,"275":5.493350982666016,"276":1.9212334156036377,"277":2.275623083114624,"278":2.6026904582977295,"279":-4.144637107849121,"280":3.1488139629364014,"281":-0.11062093824148178,"282":3.6858625411987305,"283":-0.3699890375137329,"284":0.13423630595207214,"285":1.6317250728607178,"286":-0.06087731570005417,"287":1.4940991401672363,"288":0.8877099752426147,"289":-0.4653374254703522,"290":0.11121247708797455,"291":1.4560463428497314,"292":0.6105323433876038,"293":-2.153137683868408,"294":-3.5529234409332275,"295":0.6102583408355713,"296":-0.8166074752807617,"297":8.675975799560547,"298":1.1291146278381348,"299":0.1754634529352188,"300":2.2338027954101562,"301":-1.4462579488754272,"302":2.1977410316467285,"303":1.5961909294128418,"304":-5.299742221832275,"305":-2.58540415763855,"306":-2.414457082748413,"307":-1.9031835794448853,"308":0.09870825707912445,"309":0.20797479152679443,"310":0.027451137080788612,"311":-4.875799179077148,"312":-0.6773832440376282,"313":1.6635323762893677,"314":-1.3393803834915161,"315":-0.46559587121009827,"316":1.5641793012619019,"317":-2.6667213439941406,"318":2.4693684577941895,"319":-0.2334059476852417,"320":2.504476547241211,"321":6.545583724975586,"322":-0.44727882742881775,"323":4.068694591522217,"324":-4.790679931640625,"325":0.7612806558609009,"326":5.10374641418457,"327":-1.834852933883667,"328":-0.17977868020534515,"329":3.5483603477478027,"330":-1.6147384643554688,"331":-2.1683719158172607,"332":-1.253280520439148,"333":-3.5840976238250732,"334":2.9606521129608154,"335":0.6117295026779175,"336":1.182487964630127,"337":1.23940908908844,"338":4.627012252807617,"339":-1.5915040969848633,"340":-0.3878127634525299,"341":-1.9737145900726318,"342":-4.458987236022949,"343":-1.778262734413147,"344":2.2798824310302734,"345":-2.947828531265259,"346":-1.1691921949386597,"347":2.915519952774048,"348":-5.134143829345703,"349":-0.5427435040473938,"350":-1.5769598484039307,"351":-1.751010775566101,"352":-1.8140480518341064,"353":0.7258419394493103,"354":0.6630882620811462,"355":0.5641123652458191,"356":0.6754675507545471,"357":1.5703061819076538,"358":0.04622628539800644,"359":-0.36827531456947327,"360":-2.01374888420105,"361":2.6344053745269775,"362":-5.130134105682373,"363":-0.9505909085273743,"364":2.064159631729126,"365":-1.2104744911193848,"366":0.06348665058612823,"367":-0.9943493604660034,"368":-1.7533644437789917,"369":0.6250885725021362,"370":-1.29893159866333,"371":1.241544485092163,"372":-2.203502655029297,"373":-1.181721806526184,"374":-1.2249336242675781,"375":1.5605121850967407,"376":0.7873855233192444,"377":-0.0651748850941658,"378":2.5404090881347656,"379":-0.8012036085128784,"380":0.5275502800941467,"381":-1.2195194959640503,"382":0.5960354804992676,"383":-0.9708638787269592,"384":0.3911738991737366,"385":-2.3920488357543945,"386":-0.4630061984062195,"387":0.007357511669397354,"388":4.385690689086914,"389":0.9528666734695435,"390":-0.5905085206031799,"391":-0.9888060688972473,"392":-0.0656389519572258,"393":0.08560701459646225,"394":-1.265079379081726,"395":-0.6151404976844788,"396":-0.4038863778114319,"397":1.2073349952697754,"398":0.4555882215499878,"399":-0.9269108772277832,"400":-0.2871648371219635,"401":-2.524833917617798,"402":-0.42372211813926697,"403":-0.09607382118701935,"404":-2.4946253299713135,"405":-0.7253443598747253,"406":-0.9204531908035278,"407":2.752925157546997,"408":2.171353578567505,"409":2.9043092727661133,"410":1.1373724937438965,"411":0.6835751533508301,"412":-2.0913541316986084,"413":-3.5726428031921387,"414":-1.75381338596344,"415":-1.347792387008667,"416":1.02523672580719,"417":1.2457408905029297,"418":-0.8840115666389465,"419":1.6373308897018433,"420":4.021543502807617,"421":5.267411231994629,"422":0.11595243215560913,"423":-7.20062255859375,"424":-1.923092246055603,"425":-0.3698221445083618,"426":-1.4657410383224487,"427":2.8302347660064697,"428":-0.38545840978622437,"429":-1.6076915264129639,"430":0.33592212200164795,"431":-4.178112983703613,"432":-2.365642547607422,"433":-0.8001220226287842,"434":-3.111907482147217,"435":1.1547207832336426,"436":2.9026541709899902,"437":2.018338680267334,"438":0.5525169968605042,"439":3.6589419841766357,"440":-1.6641356945037842,"441":-1.8577789068222046,"442":-0.20462118089199066,"443":-5.85106897354126,"444":-1.2964766025543213,"445":-0.654591977596283,"446":3.0123445987701416,"447":-0.8303532600402832,"448":0.2268940508365631,"449":5.646624565124512,"450":0.7239974737167358,"451":1.6207280158996582,"452":0.6315684914588928,"453":-2.248556137084961,"454":-0.35487818717956543,"455":3.904006004333496,"456":4.283867835998535,"457":-2.0937483310699463,"458":-1.9851664304733276,"459":2.184882164001465,"460":-3.207674503326416,"461":-0.3843890428543091,"462":-3.0357604026794434,"463":-2.6406142711639404,"464":-0.4778900444507599,"465":2.3157196044921875,"466":0.670454740524292,"467":1.1527092456817627,"468":1.0896804332733154,"469":-0.35579460859298706,"470":-4.037496089935303,"471":2.0537588596343994,"472":-3.7993881702423096,"473":-1.0177909135818481,"474":1.4119116067886353,"475":4.6508283615112305,"476":-2.0590217113494873,"477":1.4894047975540161,"478":-1.1594446897506714,"479":0.5119482278823853,"480":0.10603348910808563,"481":0.6321010589599609,"482":-0.473290354013443,"483":-2.8807876110076904,"484":0.2237088680267334,"485":-3.70963716506958,"486":-0.776176393032074,"487":-0.8121799826622009,"488":-0.4114950895309448,"489":-2.387725830078125,"490":-0.8554738163948059,"491":-0.728550374507904,"492":-2.148782968521118,"493":0.46909239888191223,"494":3.864351272583008,"495":-3.508409261703491,"496":-2.32267165184021,"497":4.3019514083862305,"498":-1.954512119293213,"499":5.59396505355835,"500":-1.5793949365615845,"501":5.701289176940918,"502":-1.3373464345932007,"503":-3.6604018211364746,"504":-2.24468994140625,"505":-1.8201589584350586,"506":0.1253473162651062,"507":2.795900583267212,"508":3.1628620624542236,"509":1.4616680145263672,"510":4.7632951736450195,"511":0.16654017567634583,"512":5.319755554199219,"513":1.547012448310852,"514":0.6377010941505432,"515":-5.067968368530273,"516":-0.5462298393249512,"517":-1.1299123764038086,"518":3.6361920833587646,"519":-2.5645315647125244,"520":8.53273868560791,"521":-2.4302406311035156,"522":-1.189853310585022,"523":1.581749677658081,"524":1.4688587188720703,"525":-2.7683653831481934,"526":0.6552779674530029,"527":-0.646020770072937,"528":0.7708804607391357,"529":1.689226508140564,"530":-1.077652096748352,"531":-0.46439215540885925,"532":-0.41014403104782104,"533":-0.7697708010673523,"534":-0.762479305267334,"535":0.5045626163482666,"536":-0.33467110991477966,"537":0.7078441977500916,"538":-1.586204171180725,"539":-0.09828627854585648,"540":0.36877813935279846,"541":0.9612963795661926,"542":-0.21253712475299835,"543":-1.3640978336334229,"544":-2.5822434425354004,"545":0.6441812515258789,"546":-0.2478695809841156,"547":2.2772226333618164,"548":0.28479722142219543,"549":1.4450504779815674,"550":1.9268888235092163,"551":-1.8958008289337158,"552":-4.321798801422119,"553":-3.7414042949676514,"554":-4.664285182952881,"555":-4.44633674621582,"556":-2.2920351028442383,"557":-1.1224087476730347,"558":0.8683092594146729,"559":1.3811675310134888,"560":-2.7071735858917236,"561":-1.9446011781692505,"562":-5.922307968139648,"563":-1.6094493865966797,"564":2.814230442047119,"565":-4.072384357452393,"566":-1.3502711057662964,"567":-1.3085635900497437,"568":2.4590518474578857,"569":-3.5006110668182373,"570":-0.18652686476707458,"571":-0.9729310870170593,"572":-5.1629157066345215,"573":7.390832424163818,"574":4.258130073547363,"575":-4.371946334838867,"576":2.224590301513672,"577":3.03505802154541,"578":-1.2026413679122925,"579":3.1905455589294434}},"inputHidden":{"rows":20,"columns":20,"weights":{"0":-6.686242580413818,"1":-12.09023380279541,"2":1.118303894996643,"3":-7.891605854034424,"4":4.260796070098877,"5":-7.988502502441406,"6":1.9598169326782227,"7":-2.422001838684082,"8":0.4768511652946472,"9":-12.000142097473145,"10":-1.6179583072662354,"11":-2.329296350479126,"12":-9.595921516418457,"13":1.7018431425094604,"14":4.5180463790893555,"15":-3.9685869216918945,"16":2.90161395072937,"17":-1.2084770202636719,"18":-4.291047096252441,"19":-4.71339750289917,"20":1.5971624851226807,"21":-3.9651012420654297,"22":3.3254213333129883,"23":-6.043413162231445,"24":3.8512539863586426,"25":-5.278763771057129,"26":-3.758543014526367,"27":1.9701545238494873,"28":1.1988321542739868,"29":3.415116548538208,"30":2.013345241546631,"31":2.5583391189575195,"32":0.01833496429026127,"33":-2.631387948989868,"34":5.288175582885742,"35":1.775420069694519,"36":-0.6576600074768066,"37":0.03784766048192978,"38":-4.012494087219238,"39":-1.1019573211669922,"40":5.847250461578369,"41":-0.4873533546924591,"42":-3.45672869682312,"43":6.1038312911987305,"44":-5.811895370483398,"45":5.090559959411621,"46":5.448620319366455,"47":-0.31827107071876526,"48":-6.514467239379883,"49":-6.363561153411865,"50":-4.590503692626953,"51":2.814140796661377,"52":-1.4339789152145386,"53":5.5345659255981445,"54":-6.84929084777832,"55":5.507609844207764,"56":0.34182554483413696,"57":-4.251644611358643,"58":0.32103171944618225,"59":-2.0187036991119385,"60":3.633159875869751,"61":-0.1644691526889801,"62":0.8654362559318542,"63":4.078451633453369,"64":-8.113025665283203,"65":-3.075932025909424,"66":-9.696378707885742,"67":-2.3311381340026855,"68":-4.50026798248291,"69":-2.2649974822998047,"70":-10.786952018737793,"71":7.556158542633057,"72":-3.8901357650756836,"73":-1.7485431432724,"74":1.7214099168777466,"75":-5.8820366859436035,"76":5.974342346191406,"77":0.4591657519340515,"78":2.9431796073913574,"79":-2.6434712409973145,"80":1.1038175821304321,"81":6.097468376159668,"82":1.9764978885650635,"83":-7.420302867889404,"84":-2.0264315605163574,"85":5.296118259429932,"86":-1.814322829246521,"87":-1.9283726215362549,"88":3.4621236324310303,"89":7.90834379196167,"90":6.076415061950684,"91":-4.132730960845947,"92":-2.153064250946045,"93":6.529583930969238,"94":-2.035841226577759,"95":-2.7330422401428223,"96":-5.56403923034668,"97":13.545577049255371,"98":3.550502300262451,"99":2.409867525100708,"100":-0.21501876413822174,"101":-3.1978988647460938,"102":0.7355862855911255,"103":3.652010917663574,"104":5.5869622230529785,"105":-1.6714046001434326,"106":-0.37877458333969116,"107":-3.4967734813690186,"108":-3.639417886734009,"109":-2.37186598777771,"110":-0.7115219235420227,"111":-1.479235053062439,"112":5.518442153930664,"113":-1.219828724861145,"114":4.067353248596191,"115":3.9877161979675293,"116":-2.2485265731811523,"117":-2.2236075401306152,"118":-2.363800048828125,"119":2.207822322845459,"120":-3.561886787414551,"121":1.9553444385528564,"122":-2.309717893600464,"123":9.98864459991455,"124":-2.49953293800354,"125":6.397064685821533,"126":-5.781309604644775,"127":1.3987507820129395,"128":-1.6628857851028442,"129":0.623280942440033,"130":-1.7061307430267334,"131":2.6091203689575195,"132":-0.8220580816268921,"133":2.826072931289673,"134":-1.9394786357879639,"135":3.087434768676758,"136":-0.0392831489443779,"137":5.268077850341797,"138":6.398161888122559,"139":-0.28792914748191833,"140":3.9578661918640137,"141":3.0614311695098877,"142":0.3840356767177582,"143":0.872850775718689,"144":-0.18998390436172485,"145":-2.478788137435913,"146":5.652032852172852,"147":-2.2263734340667725,"148":-2.63838267326355,"149":9.194622039794922,"150":-1.7493956089019775,"151":-0.5456082820892334,"152":1.875482439994812,"153":0.7793704867362976,"154":-5.622140884399414,"155":-0.5912080407142639,"156":4.044411659240723,"157":-4.941014289855957,"158":3.9239697456359863,"159":-1.4919720888137817,"160":-3.3477001190185547,"161":1.6482948064804077,"162":-5.505478858947754,"163":5.468651294708252,"164":-1.461290717124939,"165":-5.156011581420898,"166":0.3700351119041443,"167":9.714102745056152,"168":7.459560871124268,"169":-1.193260908126831,"170":10.006815910339355,"171":-4.049501419067383,"172":19.881093978881836,"173":-1.6180132627487183,"174":4.694396018981934,"175":-0.9453049302101135,"176":-8.230612754821777,"177":7.583626747131348,"178":2.8186545372009277,"179":-2.824887990951538,"180":7.953637599945068,"181":-1.0215675830841064,"182":-5.970358848571777,"183":1.0389002561569214,"184":2.7603166103363037,"185":13.017024993896484,"186":10.196209907531738,"187":-7.967092514038086,"188":-0.02637222781777382,"189":-4.018775939941406,"190":-17.040550231933594,"191":3.5177135467529297,"192":5.895195960998535,"193":8.24385929107666,"194":1.0575295686721802,"195":5.441915035247803,"196":2.8221797943115234,"197":-0.7869455814361572,"198":8.724211692810059,"199":-5.561165809631348,"200":-0.33966726064682007,"201":-4.8768229484558105,"202":-1.9004225730895996,"203":0.4010520875453949,"204":0.4002588391304016,"205":-3.232241153717041,"206":6.071372032165527,"207":5.681136131286621,"208":1.530143141746521,"209":0.44772869348526,"210":3.3250062465667725,"211":-4.488195419311523,"212":0.16979533433914185,"213":-1.094312071800232,"214":4.82270622253418,"215":-8.657577514648438,"216":-0.04884015768766403,"217":-1.695360779762268,"218":-5.791464805603027,"219":7.672332286834717,"220":-1.3965916633605957,"221":1.2952848672866821,"222":5.328436851501465,"223":0.9157671928405762,"224":3.6609015464782715,"225":-4.215456485748291,"226":1.6252597570419312,"227":-3.083883762359619,"228":-7.953013896942139,"229":-4.070736885070801,"230":3.418339490890503,"231":-6.772704601287842,"232":-2.292224645614624,"233":2.6935606002807617,"234":-3.3857367038726807,"235":-0.8636608719825745,"236":1.8363151550292969,"237":0.028491239994764328,"238":3.7817258834838867,"239":3.434548854827881,"240":-4.86097526550293,"241":-2.75203275680542,"242":5.386722087860107,"243":-13.44922924041748,"244":-5.155012607574463,"245":-7.645529270172119,"246":2.197267532348633,"247":6.1066484451293945,"248":8.066455841064453,"249":4.045102596282959,"250":9.478878021240234,"251":-2.9812302589416504,"252":-3.103273391723633,"253":-1.1531108617782593,"254":-1.3086442947387695,"255":-5.5186872482299805,"256":2.5542781352996826,"257":-19.6375732421875,"258":-3.9036786556243896,"259":-6.749146938323975,"260":3.1613404750823975,"261":7.860804080963135,"262":1.809146761894226,"263":-1.3672674894332886,"264":-2.1886041164398193,"265":6.596132278442383,"266":1.897400975227356,"267":-0.5997810363769531,"268":3.6658668518066406,"269":-2.087628126144409,"270":12.9862060546875,"271":6.602025032043457,"272":7.0967488288879395,"273":-0.15966205298900604,"274":8.383598327636719,"275":4.079106330871582,"276":-5.6151957511901855,"277":-10.657776832580566,"278":2.6583003997802734,"279":-11.004709243774414,"280":2.8721983432769775,"281":6.653762340545654,"282":-1.9418357610702515,"283":4.950024127960205,"284":-1.0910283327102661,"285":0.20824359357357025,"286":-1.297511100769043,"287":-0.24545960128307343,"288":6.753200054168701,"289":-0.12266554683446884,"290":4.190611839294434,"291":8.164299964904785,"292":6.168152332305908,"293":-2.133026361465454,"294":-8.706889152526855,"295":0.9194220900535583,"296":3.5896804332733154,"297":-5.125045299530029,"298":-4.599265098571777,"299":2.422510862350464,"300":0.6060633063316345,"301":3.508380651473999,"302":-1.3418083190917969,"303":-3.520998001098633,"304":6.682539463043213,"305":2.4277775287628174,"306":2.0621120929718018,"307":-6.473020076751709,"308":0.3214591443538666,"309":-3.2908403873443604,"310":2.198434591293335,"311":0.5460841059684753,"312":10.808115005493164,"313":-3.9027535915374756,"314":-2.2111363410949707,"315":-4.847818851470947,"316":5.554718494415283,"317":-1.3952399492263794,"318":0.3667854368686676,"319":-1.5508027076721191,"320":10.306489944458008,"321":-4.900331974029541,"322":3.4175190925598145,"323":-0.3714612126350403,"324":12.2095947265625,"325":-1.6123968362808228,"326":2.8094325065612793,"327":1.3186609745025635,"328":-6.583216667175293,"329":5.390304088592529,"330":-5.1088128089904785,"331":-6.140285491943359,"332":-0.428365021944046,"333":-12.348267555236816,"334":3.8846073150634766,"335":0.06508450955152512,"336":-0.9866273403167725,"337":4.770099639892578,"338":4.752821922302246,"339":-1.4772659540176392,"340":3.690258264541626,"341":0.04305083304643631,"342":0.42862147092819214,"343":7.077498435974121,"344":-2.6610493659973145,"345":-1.6242189407348633,"346":2.5328614711761475,"347":3.5311472415924072,"348":-0.9354028105735779,"349":-1.0410226583480835,"350":-2.6605608463287354,"351":2.3020143508911133,"352":2.5544307231903076,"353":0.279349148273468,"354":8.649293899536133,"355":-2.7077693939208984,"356":4.980978965759277,"357":6.703649044036865,"358":-0.9400122165679932,"359":2.4742190837860107,"360":2.8321313858032227,"361":-5.399714946746826,"362":1.5730122327804565,"363":4.059057235717773,"364":0.32454806566238403,"365":-4.741606712341309,"366":6.08396577835083,"367":14.986523628234863,"368":-4.342010974884033,"369":11.263375282287598,"370":-2.2448740005493164,"371":12.396331787109375,"372":-2.7104651927948,"373":-5.379582405090332,"374":-17.086347579956055,"375":-1.7685657739639282,"376":-2.0375118255615234,"377":4.332623481750488,"378":-3.142207145690918,"379":3.2580156326293945,"380":-4.841121196746826,"381":-1.8965210914611816,"382":-2.2674343585968018,"383":-4.656777381896973,"384":11.434683799743652,"385":-2.2180538177490234,"386":-2.433143377304077,"387":-1.2998961210250854,"388":0.4409681260585785,"389":5.611827373504639,"390":-1.2036478519439697,"391":-4.731956958770752,"392":2.1686294078826904,"393":-7.808287620544434,"394":11.064560890197754,"395":3.026716947555542,"396":-7.7231597900390625,"397":2.9471023082733154,"398":-2.929389715194702,"399":2.73534893989563}},"inputBias":{"rows":20,"columns":1,"weights":{"0":-2.045013189315796,"1":-0.290809690952301,"2":-2.942471504211426,"3":-1.5130808353424072,"4":1.2058933973312378,"5":-0.6300235986709595,"6":0.5719585418701172,"7":-1.0162384510040283,"8":-1.196070671081543,"9":-0.828069269657135,"10":-1.7834681272506714,"11":0.2800942659378052,"12":-1.2800147533416748,"13":-0.040471579879522324,"14":-0.5100778937339783,"15":0.5629054307937622,"16":-0.5348596572875977,"17":-2.1149914264678955,"18":-0.2611790597438812,"19":-2.845021963119507}},"forgetMatrix":{"rows":20,"columns":29,"weights":{"0":2.614924192428589,"1":0.38853031396865845,"2":-4.466301441192627,"3":2.4665749073028564,"4":2.8677265644073486,"5":-0.7760766744613647,"6":2.5317907333374023,"7":-1.8480885028839111,"8":0.030742691829800606,"9":3.811393976211548,"10":2.262287139892578,"11":3.395092248916626,"12":2.001729726791382,"13":-0.6650352478027344,"14":1.264417052268982,"15":0.16282996535301208,"16":1.046593427658081,"17":-1.9073845148086548,"18":-1.6014796495437622,"19":2.6309592723846436,"20":-2.5674808025360107,"21":0.9701226353645325,"22":-0.9331173896789551,"23":-2.2830398082733154,"24":-0.19748808443546295,"25":-3.2617084980010986,"26":0.8381999135017395,"27":-1.5348390340805054,"28":-2.5110127925872803,"29":5.113181114196777,"30":-1.0228761434555054,"31":-0.8649464249610901,"32":1.0628222227096558,"33":1.1144981384277344,"34":0.626803994178772,"35":2.543790578842163,"36":1.506948709487915,"37":-3.204284429550171,"38":1.998976230621338,"39":2.4230875968933105,"40":0.669708251953125,"41":1.9135586023330688,"42":2.625030994415283,"43":2.593036413192749,"44":-0.22649356722831726,"45":-2.4230246543884277,"46":0.4944922626018524,"47":0.08382187783718109,"48":-0.603276252746582,"49":0.8638537526130676,"50":-2.0835840702056885,"51":2.9219777584075928,"52":2.8331594467163086,"53":-6.211127281188965,"54":-0.7298451066017151,"55":-3.0757594108581543,"56":0.44420310854911804,"57":0.9943592548370361,"58":-0.606378972530365,"59":-1.049822211265564,"60":-1.4422367811203003,"61":3.1590991020202637,"62":0.37437573075294495,"63":-1.0840035676956177,"64":1.128509521484375,"65":-3.361922264099121,"66":-4.455440521240234,"67":0.44983571767807007,"68":-0.33795568346977234,"69":1.2287156581878662,"70":-3.5332529544830322,"71":-1.6588908433914185,"72":-1.0371153354644775,"73":-0.6032987236976624,"74":5.046125888824463,"75":-0.8168402314186096,"76":0.04923325031995773,"77":1.6486374139785767,"78":-1.075798749923706,"79":2.483989715576172,"80":-2.4037907123565674,"81":-0.9726863503456116,"82":5.021628379821777,"83":1.0308384895324707,"84":-0.42653772234916687,"85":-2.988438129425049,"86":1.7522449493408203,"87":-1.9669899940490723,"88":1.9482245445251465,"89":3.0777416229248047,"90":1.031191349029541,"91":-1.2822825908660889,"92":0.06995759159326553,"93":-5.058038234710693,"94":0.05526307225227356,"95":-1.9928264617919922,"96":3.1138148307800293,"97":-1.3533414602279663,"98":0.19177372753620148,"99":-1.7669800519943237,"100":0.10570080578327179,"101":1.0341523885726929,"102":-1.2936242818832397,"103":2.888885736465454,"104":-2.9476468563079834,"105":4.434765815734863,"106":-4.430675983428955,"107":-2.7947802543640137,"108":-0.40417999029159546,"109":-3.1330065727233887,"110":-0.9952402710914612,"111":2.819385051727295,"112":-2.1612026691436768,"113":0.3582969307899475,"114":-5.620108127593994,"115":-0.1277976930141449,"116":-0.7611537575721741,"117":2.7588276863098145,"118":5.3384809494018555,"119":6.18695068359375,"120":0.13838988542556763,"121":-0.18811851739883423,"122":1.367170810699463,"123":1.6568694114685059,"124":0.5422698855400085,"125":1.6438536643981934,"126":-0.44233256578445435,"127":4.570199012756348,"128":3.559856653213501,"129":5.889644622802734,"130":0.4324195086956024,"131":2.815639019012451,"132":-3.3340630531311035,"133":-1.1232035160064697,"134":3.877399206161499,"135":-4.235232353210449,"136":1.5462396144866943,"137":-0.8093883395195007,"138":4.277669429779053,"139":-0.2684202790260315,"140":1.524986743927002,"141":-1.1865615844726562,"142":3.9351558685302734,"143":-2.970393657684326,"144":-3.9230332374572754,"145":-1.4367656707763672,"146":0.030301261693239212,"147":0.09308020025491714,"148":-2.01232647895813,"149":1.1310365200042725,"150":-0.043465565890073776,"151":1.3575525283813477,"152":-5.0095624923706055,"153":-5.660586833953857,"154":1.4373130798339844,"155":-1.5184932947158813,"156":2.9028608798980713,"157":1.5524905920028687,"158":-6.591671943664551,"159":-1.309043049812317,"160":-1.3631070852279663,"161":9.761114120483398,"162":0.2464282512664795,"163":3.1323413848876953,"164":-0.14341497421264648,"165":-1.2778373956680298,"166":3.010748863220215,"167":-2.3831787109375,"168":1.8871828317642212,"169":5.179384231567383,"170":-0.6470330357551575,"171":-5.768435478210449,"172":-8.253303527832031,"173":-0.4971691370010376,"174":1.867558240890503,"175":-3.3831305503845215,"176":-3.9037230014801025,"177":0.9530395865440369,"178":-2.0930211544036865,"179":-0.809879720211029,"180":-1.3156931400299072,"181":-6.081275463104248,"182":0.24726812541484833,"183":-2.1654398441314697,"184":0.8126001954078674,"185":0.577319324016571,"186":3.751089096069336,"187":-2.727841854095459,"188":-1.6438850164413452,"189":-4.015074253082275,"190":-2.5620484352111816,"191":-3.499497890472412,"192":-6.867389678955078,"193":-2.1284544467926025,"194":4.08383846282959,"195":4.066819190979004,"196":5.536088466644287,"197":1.7090657949447632,"198":5.648571014404297,"199":1.4518429040908813,"200":-0.5137271881103516,"201":-1.5913718938827515,"202":-0.99374920129776,"203":2.596248149871826,"204":-0.7647531628608704,"205":-1.758232831954956,"206":1.5746150016784668,"207":-2.1804964542388916,"208":-1.4876517057418823,"209":2.2222845554351807,"210":-3.4709861278533936,"211":3.74751353263855,"212":-3.558408498764038,"213":-2.35024094581604,"214":0.9089795351028442,"215":2.6488988399505615,"216":-3.046149969100952,"217":-2.8463375568389893,"218":-2.353738784790039,"219":0.19136153161525726,"220":2.6563096046447754,"221":4.328920364379883,"222":3.3562114238739014,"223":0.44737109541893005,"224":-2.4613773822784424,"225":0.32436028122901917,"226":-2.7361972332000732,"227":3.074674606323242,"228":0.5567061901092529,"229":3.13104248046875,"230":-0.5573381781578064,"231":0.29913175106048584,"232":1.939107894897461,"233":1.390499234199524,"234":-2.6760096549987793,"235":-0.2847389876842499,"236":-0.9808453321456909,"237":0.642452597618103,"238":3.107150077819824,"239":-0.972549319267273,"240":4.836031436920166,"241":-0.16685263812541962,"242":-2.0334997177124023,"243":-4.747337341308594,"244":3.48776912689209,"245":3.2318508625030518,"246":-3.2309296131134033,"247":-7.444015026092529,"248":-4.036720275878906,"249":1.844833493232727,"250":0.1511334329843521,"251":-2.3137381076812744,"252":-1.4091118574142456,"253":-1.5821483135223389,"254":1.4860284328460693,"255":3.719085931777954,"256":-3.293963670730591,"257":5.615499973297119,"258":-2.9083189964294434,"259":-0.9799026250839233,"260":-2.494215250015259,"261":3.700310707092285,"262":5.447329044342041,"263":-0.279244601726532,"264":-0.6205735206604004,"265":-0.35003772377967834,"266":-4.257443428039551,"267":-3.0724472999572754,"268":2.659040927886963,"269":-3.9162867069244385,"270":1.1379653215408325,"271":1.729271650314331,"272":2.593215227127075,"273":0.20163460075855255,"274":2.7830123901367188,"275":3.118631362915039,"276":5.324976444244385,"277":-0.40967416763305664,"278":-4.5137834548950195,"279":-1.165244698524475,"280":-2.7506649494171143,"281":2.008274555206299,"282":1.284175157546997,"283":0.9917339086532593,"284":1.267768383026123,"285":-2.884141445159912,"286":-1.016018033027649,"287":3.512202501296997,"288":-1.8228719234466553,"289":2.7918806076049805,"290":-0.2961311340332031,"291":3.0888378620147705,"292":1.7263426780700684,"293":-0.8607044816017151,"294":2.853175163269043,"295":3.8856265544891357,"296":3.4519686698913574,"297":0.6263333559036255,"298":-5.743905544281006,"299":-0.9831358790397644,"300":2.519831657409668,"301":4.394772052764893,"302":-1.3279247283935547,"303":1.7863538265228271,"304":3.506014347076416,"305":3.8340957164764404,"306":1.4607579708099365,"307":-2.3756754398345947,"308":-4.718414783477783,"309":3.622101068496704,"310":-1.0338411331176758,"311":4.32134485244751,"312":-1.2810007333755493,"313":-0.7098585963249207,"314":0.6433625817298889,"315":-4.044291019439697,"316":-4.457113265991211,"317":3.292712450027466,"318":-3.3403425216674805,"319":4.734955310821533,"320":4.506002426147461,"321":-1.3570278882980347,"322":1.6022510528564453,"323":-1.264272928237915,"324":1.9126231670379639,"325":0.15540675818920135,"326":-0.6092625856399536,"327":3.711178779602051,"328":-0.513481616973877,"329":-6.030821323394775,"330":1.5751011371612549,"331":0.34522783756256104,"332":1.9539015293121338,"333":0.4970911145210266,"334":-0.5603510737419128,"335":-1.1177682876586914,"336":1.50453519821167,"337":-1.9708733558654785,"338":-3.2189362049102783,"339":3.081958532333374,"340":2.877251386642456,"341":-0.40021568536758423,"342":-1.6806639432907104,"343":2.199090003967285,"344":2.0826046466827393,"345":-0.6037986874580383,"346":-1.5529574155807495,"347":2.6177828311920166,"348":1.2485520839691162,"349":0.9949439764022827,"350":-5.905548095703125,"351":1.7325708866119385,"352":-0.378262996673584,"353":-0.7690603137016296,"354":3.5607118606567383,"355":1.0996222496032715,"356":-0.5871190428733826,"357":0.8987413644790649,"358":-3.5587716102600098,"359":-1.3492710590362549,"360":2.449742317199707,"361":4.032275676727295,"362":-5.936494827270508,"363":0.5011787414550781,"364":-4.959175109863281,"365":3.468306064605713,"366":-2.024430274963379,"367":-3.263397455215454,"368":2.0616655349731445,"369":1.1882660388946533,"370":2.4431159496307373,"371":1.5744876861572266,"372":-3.433988332748413,"373":5.3229570388793945,"374":-3.5589029788970947,"375":0.6311493515968323,"376":0.649127721786499,"377":0.8285254836082458,"378":4.897512435913086,"379":-0.7615845203399658,"380":-1.2872984409332275,"381":4.169131278991699,"382":4.170557498931885,"383":2.209636688232422,"384":0.4718233346939087,"385":3.0383224487304688,"386":-3.2702136039733887,"387":-1.3139662742614746,"388":-3.6400623321533203,"389":2.3210690021514893,"390":3.5318500995635986,"391":5.983762264251709,"392":1.1032476425170898,"393":3.141116142272949,"394":4.004027843475342,"395":-1.8956447839736938,"396":2.9630284309387207,"397":-0.9006146788597107,"398":-0.7481274604797363,"399":0.5569827556610107,"400":-3.4456186294555664,"401":4.057679653167725,"402":-0.6467514038085938,"403":-2.448613166809082,"404":-2.646103620529175,"405":-5.349032878875732,"406":1.4640413522720337,"407":-0.9632500410079956,"408":-0.020870266482234,"409":-2.484313726425171,"410":-0.2762393355369568,"411":1.1654233932495117,"412":-1.6200720071792603,"413":0.7487223744392395,"414":-2.4864211082458496,"415":-0.6365596055984497,"416":3.417482852935791,"417":-0.5713223814964294,"418":2.0994720458984375,"419":-0.5625357031822205,"420":1.9046841859817505,"421":-2.6286163330078125,"422":2.614788770675659,"423":1.053635835647583,"424":1.9267064332962036,"425":0.7065663933753967,"426":2.1498754024505615,"427":-0.8031114935874939,"428":-2.761942148208618,"429":2.6154675483703613,"430":-1.0556411743164062,"431":0.4103052616119385,"432":-1.6779905557632446,"433":-1.2849202156066895,"434":-0.5151552557945251,"435":3.858715057373047,"436":1.1629892587661743,"437":4.5204949378967285,"438":1.5241916179656982,"439":0.9191543459892273,"440":-3.0386030673980713,"441":-3.9097371101379395,"442":-0.0685301125049591,"443":-1.0541340112686157,"444":-1.1187844276428223,"445":0.14447763562202454,"446":-2.4989404678344727,"447":0.294726699590683,"448":-0.5062671303749084,"449":2.34853458404541,"450":-3.266712188720703,"451":0.39688485860824585,"452":0.7714390754699707,"453":-0.9925557374954224,"454":-2.386077404022217,"455":0.8544501662254333,"456":1.0950489044189453,"457":2.711209297180176,"458":2.2511188983917236,"459":2.9443211555480957,"460":-0.7243214249610901,"461":1.979530930519104,"462":-2.1815826892852783,"463":-0.33677154779434204,"464":4.160184383392334,"465":-0.09518160670995712,"466":-4.267889499664307,"467":0.34295812249183655,"468":4.732177257537842,"469":-0.009023171849548817,"470":1.702051043510437,"471":-6.0845160484313965,"472":4.54856538772583,"473":-3.8735992908477783,"474":0.34196630120277405,"475":-1.5793992280960083,"476":3.9224536418914795,"477":-3.9025793075561523,"478":-1.2005683183670044,"479":-1.02699613571167,"480":-0.010887516662478447,"481":0.24917864799499512,"482":-5.174243927001953,"483":3.834298610687256,"484":2.3656728267669678,"485":2.466869592666626,"486":-3.8017208576202393,"487":0.29408061504364014,"488":2.329164743423462,"489":0.7352688312530518,"490":0.766243040561676,"491":-0.9102814793586731,"492":3.703622579574585,"493":-2.6313793659210205,"494":3.7576544284820557,"495":-0.8123467564582825,"496":0.6679543852806091,"497":-0.773402988910675,"498":4.562620162963867,"499":1.5555686950683594,"500":0.038886770606040955,"501":-2.8126935958862305,"502":1.5524272918701172,"503":-5.066229820251465,"504":2.0816214084625244,"505":0.25881829857826233,"506":0.9343830347061157,"507":0.49523770809173584,"508":0.6052489876747131,"509":-2.792734384536743,"510":-4.909918308258057,"511":-4.323981285095215,"512":-1.8240997791290283,"513":3.8917558193206787,"514":-0.43408963084220886,"515":1.7415406703948975,"516":-2.6047604084014893,"517":-4.346572399139404,"518":0.7186237573623657,"519":-4.233026504516602,"520":0.5122755169868469,"521":-3.9623613357543945,"522":4.067293643951416,"523":-4.427593231201172,"524":-5.765923976898193,"525":1.6890981197357178,"526":0.5188738107681274,"527":4.603579044342041,"528":1.60664963722229,"529":-2.6007895469665527,"530":3.373328924179077,"531":1.474529504776001,"532":-4.234333515167236,"533":-0.39112237095832825,"534":1.672239065170288,"535":-1.8654625415802002,"536":-0.46350374817848206,"537":-1.4841101169586182,"538":-3.3970184326171875,"539":0.6155219674110413,"540":-5.487181663513184,"541":4.6737165451049805,"542":-0.8072052597999573,"543":-0.9745620489120483,"544":7.625019550323486,"545":1.5767552852630615,"546":0.4765145778656006,"547":5.196018695831299,"548":0.4736110270023346,"549":1.4848971366882324,"550":-0.9804208874702454,"551":3.243626594543457,"552":-0.566814124584198,"553":-2.8829457759857178,"554":1.9105520248413086,"555":3.7974112033843994,"556":-3.4401485919952393,"557":-4.812343120574951,"558":5.888312816619873,"559":-2.736963987350464,"560":6.452749729156494,"561":4.173765659332275,"562":-1.076305627822876,"563":-5.172347545623779,"564":-1.8972135782241821,"565":6.128176212310791,"566":3.342987060546875,"567":6.236324310302734,"568":0.8491716384887695,"569":-0.2643302083015442,"570":-0.5604519844055176,"571":1.7660850286483765,"572":5.996694564819336,"573":-3.2996463775634766,"574":-1.1052495241165161,"575":1.016707181930542,"576":-2.439192295074463,"577":-1.639693260192871,"578":1.1969702243804932,"579":-2.2371740341186523}},"forgetHidden":{"rows":20,"columns":20,"weights":{"0":-7.293241024017334,"1":0.40186062455177307,"2":-1.996145248413086,"3":4.157341957092285,"4":-3.151167392730713,"5":3.3627634048461914,"6":-4.767431735992432,"7":3.1910617351531982,"8":-9.64005184173584,"9":-1.1491212844848633,"10":-4.672882556915283,"11":6.082935333251953,"12":-12.334986686706543,"13":1.0070271492004395,"14":-0.7417132258415222,"15":-2.3351497650146484,"16":-4.365315914154053,"17":2.1157922744750977,"18":-3.9696907997131348,"19":-6.776556015014648,"20":5.777416229248047,"21":-7.164618968963623,"22":-3.8204338550567627,"23":-12.489315032958984,"24":8.942667961120605,"25":5.46424674987793,"26":-5.100427627563477,"27":-0.7151719331741333,"28":-5.518171310424805,"29":1.662123680114746,"30":-4.589583396911621,"31":6.557656288146973,"32":4.721807956695557,"33":1.2469185590744019,"34":-2.868546962738037,"35":-2.7975850105285645,"36":-8.355660438537598,"37":15.52047061920166,"38":0.817467451095581,"39":-1.4524544477462769,"40":-4.91423225402832,"41":4.449937343597412,"42":-1.0906083583831787,"43":-0.8808143138885498,"44":2.7611236572265625,"45":-0.3213300108909607,"46":-3.9820451736450195,"47":0.6483397483825684,"48":-0.8234690427780151,"49":-5.07986307144165,"50":-3.5249922275543213,"51":3.513654947280884,"52":-3.0454185009002686,"53":-0.4773108661174774,"54":-2.5372135639190674,"55":0.9949451088905334,"56":2.077998399734497,"57":1.385973572731018,"58":0.7703769207000732,"59":1.6308002471923828,"60":4.266425609588623,"61":0.93587726354599,"62":3.46527099609375,"63":1.1332391500473022,"64":-1.4148250818252563,"65":-2.1427907943725586,"66":-4.467237949371338,"67":3.076917886734009,"68":-0.31816667318344116,"69":3.5844385623931885,"70":6.321441173553467,"71":0.9797598123550415,"72":-4.87730598449707,"73":1.6303621530532837,"74":2.673046112060547,"75":-5.4972147941589355,"76":8.33234691619873,"77":1.9302115440368652,"78":-4.59779167175293,"79":4.7591071128845215,"80":-0.08190558105707169,"81":0.12273730337619781,"82":-3.0425612926483154,"83":-2.4079270362854004,"84":-4.17579984664917,"85":0.963293194770813,"86":-1.310524821281433,"87":-1.347824215888977,"88":4.483767509460449,"89":3.169534683227539,"90":-3.374232530593872,"91":1.4355013370513916,"92":-5.185823917388916,"93":2.4708569049835205,"94":3.104315996170044,"95":-1.4530491828918457,"96":-1.899735689163208,"97":3.2492306232452393,"98":1.3641724586486816,"99":-0.2745444178581238,"100":11.097640991210938,"101":-2.3457112312316895,"102":2.9515397548675537,"103":8.863045692443848,"104":3.3975467681884766,"105":-0.43160802125930786,"106":0.3328917920589447,"107":-10.076086044311523,"108":5.053461074829102,"109":3.7862164974212646,"110":0.7956371903419495,"111":-4.145480155944824,"112":6.85904598236084,"113":-1.1404027938842773,"114":-7.072517395019531,"115":0.03171048313379288,"116":-5.953633785247803,"117":-2.5937142372131348,"118":2.2009592056274414,"119":8.264488220214844,"120":4.046497344970703,"121":1.958058476448059,"122":-4.957430362701416,"123":-4.470457553863525,"124":-7.811748504638672,"125":4.567354202270508,"126":-8.903909683227539,"127":20.015993118286133,"128":-5.457644939422607,"129":-1.4626870155334473,"130":-5.261826038360596,"131":-1.2748547792434692,"132":2.0457334518432617,"133":-6.739802360534668,"134":0.8912622928619385,"135":0.45886722207069397,"136":-8.280306816101074,"137":-4.785600185394287,"138":-2.716165542602539,"139":1.8011234998703003,"140":5.700584411621094,"141":1.4819504022598267,"142":-1.3883113861083984,"143":0.6383863687515259,"144":1.4321706295013428,"145":0.01289166510105133,"146":2.1263201236724854,"147":0.2474559247493744,"148":-1.4148154258728027,"149":1.421754240989685,"150":-0.058746229857206345,"151":1.1479085683822632,"152":-3.137361526489258,"153":-2.1395516395568848,"154":2.9212777614593506,"155":1.2605851888656616,"156":-2.1689035892486572,"157":6.474736213684082,"158":-0.3292544484138489,"159":-4.306390285491943,"160":2.12143611907959,"161":-2.7082064151763916,"162":4.839816093444824,"163":3.977660655975342,"164":-4.735332012176514,"165":12.530777931213379,"166":-0.8117238283157349,"167":1.517334222793579,"168":-0.04204440861940384,"169":-4.095985412597656,"170":-6.8498382568359375,"171":-2.184027910232544,"172":6.809789180755615,"173":4.6196160316467285,"174":-4.499375343322754,"175":0.9683058261871338,"176":0.620185375213623,"177":-1.3971052169799805,"178":3.659940242767334,"179":-5.176018238067627,"180":-3.4889543056488037,"181":10.526132583618164,"182":3.2330374717712402,"183":-0.7891953587532043,"184":-4.83044958114624,"185":0.4322695732116699,"186":-2.975497245788574,"187":6.058678150177002,"188":-3.4027998447418213,"189":-2.3250198364257812,"190":-0.3278549909591675,"191":0.7072981595993042,"192":3.969205856323242,"193":-1.1538825035095215,"194":2.2874374389648438,"195":2.922558307647705,"196":-4.6450371742248535,"197":0.38156890869140625,"198":2.0078868865966797,"199":-1.8464192152023315,"200":-3.339063882827759,"201":3.670541524887085,"202":1.6615585088729858,"203":-8.038505554199219,"204":-1.7013146877288818,"205":-1.7117400169372559,"206":4.336731433868408,"207":0.5836097598075867,"208":-3.00939679145813,"209":6.162363529205322,"210":-0.6535769701004028,"211":-3.9036731719970703,"212":-9.730778694152832,"213":-0.47534456849098206,"214":-2.545109272003174,"215":3.734747886657715,"216":-1.9368468523025513,"217":2.692629814147949,"218":2.7880594730377197,"219":3.1612601280212402,"220":-3.7341597080230713,"221":3.0731418132781982,"222":-7.570375919342041,"223":-1.5795220136642456,"224":-4.191048622131348,"225":2.510164976119995,"226":-9.354402542114258,"227":-4.026942729949951,"228":1.3655186891555786,"229":-2.6855573654174805,"230":-5.266434669494629,"231":10.715567588806152,"232":1.1244474649429321,"233":0.9521413445472717,"234":-0.5857259035110474,"235":-1.6417018175125122,"236":8.464921951293945,"237":3.352975606918335,"238":-2.585594654083252,"239":-3.434967279434204,"240":-5.971462726593018,"241":9.442108154296875,"242":2.8723490238189697,"243":-9.222025871276855,"244":-9.538626670837402,"245":-0.5924797654151917,"246":-5.8940935134887695,"247":-2.6081748008728027,"248":1.1774667501449585,"249":-3.9793262481689453,"250":5.650792121887207,"251":4.99312686920166,"252":6.918233871459961,"253":-1.019517183303833,"254":2.5777950286865234,"255":2.1287524700164795,"256":-6.563830375671387,"257":-0.5810314416885376,"258":9.0407075881958,"259":5.858831405639648,"260":4.58886194229126,"261":3.599123477935791,"262":-0.6073394417762756,"263":9.943214416503906,"264":-3.5164217948913574,"265":1.8249050378799438,"266":7.540729522705078,"267":-7.240469455718994,"268":-5.4983439445495605,"269":-0.955142080783844,"270":1.8007028102874756,"271":-3.709530830383301,"272":14.533562660217285,"273":-2.3262367248535156,"274":2.1854283809661865,"275":4.679300308227539,"276":0.15897908806800842,"277":-4.310035228729248,"278":-6.618017673492432,"279":9.916316032409668,"280":-0.6481440663337708,"281":-0.31185585260391235,"282":1.3858567476272583,"283":0.9995120167732239,"284":-1.6855976581573486,"285":2.2305030822753906,"286":1.1666333675384521,"287":1.7514073848724365,"288":-2.181941270828247,"289":-3.0498557090759277,"290":-3.4013137817382812,"291":-0.5399941205978394,"292":0.14707320928573608,"293":-0.7879142165184021,"294":1.4628993272781372,"295":3.941323757171631,"296":-4.569283962249756,"297":-0.5994309782981873,"298":-1.5289794206619263,"299":-11.463550567626953,"300":-5.745821475982666,"301":1.2077078819274902,"302":0.35875603556632996,"303":-4.802649974822998,"304":-0.3413921892642975,"305":0.1508554071187973,"306":0.5921888947486877,"307":1.6905208826065063,"308":-2.436741352081299,"309":1.5451641082763672,"310":-1.0036157369613647,"311":-3.80631422996521,"312":2.879338502883911,"313":-2.095240831375122,"314":-3.4482738971710205,"315":2.3997764587402344,"316":-2.800712823867798,"317":-0.7683236002922058,"318":2.538853406906128,"319":5.984464168548584,"320":1.842977523803711,"321":4.823095321655273,"322":-4.591318607330322,"323":-2.8110718727111816,"324":3.919811725616455,"325":3.368217706680298,"326":13.333298683166504,"327":4.239102363586426,"328":5.974254608154297,"329":13.910897254943848,"330":0.6559205651283264,"331":2.279615640640259,"332":0.1427983194589615,"333":3.2737326622009277,"334":-0.9150815606117249,"335":-3.2971181869506836,"336":-1.8313554525375366,"337":7.848165988922119,"338":-3.777622699737549,"339":-0.026073502376675606,"340":-5.647972106933594,"341":6.8411664962768555,"342":5.724205493927002,"343":-0.02566707693040371,"344":-0.559844434261322,"345":3.3508079051971436,"346":1.0000967979431152,"347":2.7130820751190186,"348":3.45564866065979,"349":2.8783726692199707,"350":-4.642261505126953,"351":1.488196611404419,"352":-1.9203499555587769,"353":4.556909561157227,"354":2.739725351333618,"355":-4.493381023406982,"356":3.690370798110962,"357":1.5061109066009521,"358":-0.3411289155483246,"359":2.9851155281066895,"360":0.2331026941537857,"361":-1.07570481300354,"362":1.9797652959823608,"363":3.600391149520874,"364":-1.4196358919143677,"365":1.3358314037322998,"366":-0.3204689919948578,"367":-3.9091625213623047,"368":3.5255606174468994,"369":2.032059669494629,"370":16.43106460571289,"371":-3.3329074382781982,"372":2.3778443336486816,"373":0.37675443291664124,"374":2.2612621784210205,"375":1.071940541267395,"376":11.809911727905273,"377":7.4878716468811035,"378":-12.012567520141602,"379":-2.548208236694336,"380":-7.048922538757324,"381":-1.7039402723312378,"382":1.8186588287353516,"383":-3.3918240070343018,"384":8.292083740234375,"385":0.355486124753952,"386":-12.999472618103027,"387":-5.349745273590088,"388":1.433332085609436,"389":6.646292209625244,"390":4.167441368103027,"391":1.8061515092849731,"392":-10.411725044250488,"393":1.5012104511260986,"394":7.92790412902832,"395":2.947108745574951,"396":7.197391510009766,"397":-6.78010368347168,"398":-1.3668440580368042,"399":-6.8426008224487305}},"forgetBias":{"rows":20,"columns":1,"weights":{"0":0,"1":0,"2":0,"3":0,"4":0,"5":0,"6":0,"7":0,"8":0,"9":0,"10":0,"11":0,"12":0,"13":0,"14":0,"15":0,"16":0,"17":0,"18":0,"19":0}},"outputMatrix":{"rows":20,"columns":29,"weights":{"0":2.412226438522339,"1":2.6435229778289795,"2":3.8177895545959473,"3":-0.544386088848114,"4":-3.2962310314178467,"5":-3.6159188747406006,"6":-2.72700834274292,"7":5.088747978210449,"8":3.253220319747925,"9":-1.1554838418960571,"10":2.29988431930542,"11":1.3991267681121826,"12":-3.9376368522644043,"13":-1.624962568283081,"14":0.3868476152420044,"15":2.7682042121887207,"16":-4.544612407684326,"17":0.5992114543914795,"18":2.1947896480560303,"19":-3.3147168159484863,"20":-2.7314226627349854,"21":-3.766279458999634,"22":-0.6548822522163391,"23":-0.7217889428138733,"24":3.4203503131866455,"25":-3.1425418853759766,"26":0.21801318228244781,"27":-3.6124298572540283,"28":2.092134952545166,"29":-1.457584023475647,"30":-2.782224416732788,"31":-10.13819408416748,"32":-0.5503060817718506,"33":1.275864601135254,"34":1.0231003761291504,"35":1.4190127849578857,"36":-3.480637311935425,"37":2.741255283355713,"38":4.042041301727295,"39":-10.476561546325684,"40":-3.4515743255615234,"41":2.6121559143066406,"42":0.33418771624565125,"43":-1.0847382545471191,"44":-3.218320369720459,"45":-2.7744126319885254,"46":1.2722169160842896,"47":2.8061981201171875,"48":2.040703535079956,"49":1.9144105911254883,"50":0.6247798800468445,"51":-0.5827434062957764,"52":-1.3953943252563477,"53":-0.3313612937927246,"54":4.409571647644043,"55":2.2725813388824463,"56":4.218300819396973,"57":-1.0439459085464478,"58":0.8220173716545105,"59":3.652904748916626,"60":5.668894290924072,"61":-0.1135348454117775,"62":4.248877048492432,"63":-1.794556975364685,"64":-0.15941667556762695,"65":0.4997050166130066,"66":-4.451363563537598,"67":-2.8120107650756836,"68":-1.268574833869934,"69":1.654738187789917,"70":2.930535316467285,"71":3.0049259662628174,"72":-0.13565164804458618,"73":3.4255692958831787,"74":-2.7146573066711426,"75":1.1828778982162476,"76":-4.547491073608398,"77":0.3756878674030304,"78":-0.2487368881702423,"79":-1.0269246101379395,"80":5.51222038269043,"81":-0.5479772090911865,"82":-5.191195011138916,"83":-3.1854641437530518,"84":-0.424303263425827,"85":-4.125922679901123,"86":-3.0088887214660645,"87":-0.5267000198364258,"88":3.287663459777832,"89":-1.2547212839126587,"90":2.23374080657959,"91":2.3962864875793457,"92":0.406319260597229,"93":-0.40703773498535156,"94":2.8440520763397217,"95":-3.2828640937805176,"96":-1.0243160724639893,"97":-1.3090286254882812,"98":3.075110912322998,"99":-1.7224807739257812,"100":1.2739697694778442,"101":2.0913257598876953,"102":5.07232141494751,"103":1.0812628269195557,"104":-0.9459274411201477,"105":-0.35446271300315857,"106":0.07693091779947281,"107":0.6030896902084351,"108":4.730255126953125,"109":-1.3592605590820312,"110":-2.513808488845825,"111":-1.534729242324829,"112":0.3551807999610901,"113":-0.43377017974853516,"114":1.471660852432251,"115":-2.0588042736053467,"116":-1.3382939100265503,"117":2.027538299560547,"118":1.2779864072799683,"119":2.055800676345825,"120":1.3913346529006958,"121":-0.029659615829586983,"122":0.21043086051940918,"123":2.102842330932617,"124":-0.008232953026890755,"125":0.5127919912338257,"126":-0.19710390269756317,"127":-1.2592015266418457,"128":-0.5246869921684265,"129":0.19644621014595032,"130":1.0733160972595215,"131":-1.7386537790298462,"132":-1.0375007390975952,"133":0.14187680184841156,"134":1.2842833995819092,"135":-0.37814921140670776,"136":0.3462905287742615,"137":-2.3147709369659424,"138":-1.269575834274292,"139":-0.09388728439807892,"140":-1.1130785942077637,"141":2.366550922393799,"142":0.2676258385181427,"143":0.5561670660972595,"144":-0.18347187340259552,"145":-1.1474864482879639,"146":-2.1355042457580566,"147":0.7692025303840637,"148":1.3243012428283691,"149":0.3755609393119812,"150":-0.23859496414661407,"151":-3.2696142196655273,"152":2.835747718811035,"153":-2.23190975189209,"154":-0.0736064463853836,"155":5.6365461349487305,"156":-0.05776325985789299,"157":1.2160420417785645,"158":5.156948089599609,"159":-0.3749072551727295,"160":-1.1936813592910767,"161":0.2324417233467102,"162":-3.0768065452575684,"163":2.746904134750366,"164":-0.3649158179759979,"165":0.03157376870512962,"166":-1.5059049129486084,"167":-2.2646374702453613,"168":3.1665165424346924,"169":-0.9317202568054199,"170":0.8541322350502014,"171":-0.2017076164484024,"172":2.3952434062957764,"173":0.5633257627487183,"174":-1.511906623840332,"175":-4.291848182678223,"176":-1.1573808193206787,"177":-1.0654650926589966,"178":-0.5956985950469971,"179":0.4044625759124756,"180":0.3666447699069977,"181":-3.5442662239074707,"182":0.46919602155685425,"183":-0.6779175996780396,"184":-1.9266088008880615,"185":-1.8208383321762085,"186":2.2131171226501465,"187":-1.6598079204559326,"188":-4.451005935668945,"189":-1.0654816627502441,"190":0.2183699756860733,"191":-0.14555424451828003,"192":-0.6185106635093689,"193":0.24615325033664703,"194":1.388075828552246,"195":3.292351722717285,"196":-2.331113338470459,"197":-0.2338295876979828,"198":0.20291385054588318,"199":2.0273544788360596,"200":0.16838252544403076,"201":-2.7602429389953613,"202":0.024249309673905373,"203":1.183699369430542,"204":-2.189116954803467,"205":-6.092798233032227,"206":-1.1095707416534424,"207":4.6515889167785645,"208":0.3572733402252197,"209":1.593570351600647,"210":-4.048232555389404,"211":0.25427305698394775,"212":1.6289360523223877,"213":-3.566882848739624,"214":-5.125438213348389,"215":2.1459832191467285,"216":1.0891433954238892,"217":-0.05559295788407326,"218":-0.7757058143615723,"219":-1.5821045637130737,"220":1.5356959104537964,"221":1.068769097328186,"222":6.707279205322266,"223":1.9436010122299194,"224":3.729661226272583,"225":-3.1043167114257812,"226":0.20667974650859833,"227":-2.1379623413085938,"228":4.378337860107422,"229":3.677517890930176,"230":5.555513858795166,"231":-4.016989707946777,"232":5.290565490722656,"233":-3.371032953262329,"234":-0.12414979934692383,"235":1.397674560546875,"236":-1.6369385719299316,"237":2.886636257171631,"238":-3.151932954788208,"239":-8.664505004882812,"240":2.513129949569702,"241":-1.9875696897506714,"242":-5.1456708908081055,"243":3.5590484142303467,"244":6.375723361968994,"245":-3.5565574169158936,"246":-7.639688968658447,"247":-3.658342123031616,"248":-3.2595770359039307,"249":-4.363184928894043,"250":-4.157318115234375,"251":-2.0653889179229736,"252":4.397704601287842,"253":3.5093069076538086,"254":6.862076282501221,"255":4.530231475830078,"256":1.378011703491211,"257":2.874530076980591,"258":8.154342651367188,"259":-1.8376004695892334,"260":1.0699169635772705,"261":-2.8866875171661377,"262":4.455750942230225,"263":6.472612380981445,"264":1.4674174785614014,"265":1.3146878480911255,"266":1.1660550832748413,"267":0.238636776804924,"268":1.636378288269043,"269":-0.9639832377433777,"270":0.9749948382377625,"271":-0.0749320387840271,"272":0.37175869941711426,"273":1.1532573699951172,"274":-2.079679012298584,"275":4.575984001159668,"276":1.8673033714294434,"277":4.2673869132995605,"278":-1.1769393682479858,"279":1.4464116096496582,"280":0.9162594079971313,"281":-1.8750990629196167,"282":0.383488267660141,"283":-2.48997163772583,"284":-1.2351961135864258,"285":-0.2270784229040146,"286":0.9487728476524353,"287":-5.0405707359313965,"288":-1.5844918489456177,"289":1.8462059497833252,"290":0.8519089818000793,"291":3.4266936779022217,"292":2.1481854915618896,"293":-0.33642831444740295,"294":-2.1190433502197266,"295":-0.7776069045066833,"296":-0.6928297877311707,"297":4.039104461669922,"298":2.4295461177825928,"299":-0.9397784471511841,"300":2.1277124881744385,"301":-0.3113900423049927,"302":1.8185356855392456,"303":3.3855271339416504,"304":0.6218329668045044,"305":-0.40905603766441345,"306":-5.041193008422852,"307":-1.0003550052642822,"308":2.6975584030151367,"309":-0.8519534468650818,"310":1.4782737493515015,"311":-0.8090601563453674,"312":2.2960422039031982,"313":1.5072520971298218,"314":-0.8818969130516052,"315":2.326174736022949,"316":0.8347788453102112,"317":-4.343564987182617,"318":3.64971661567688,"319":1.9838787317276,"320":0.46203938126564026,"321":6.455526828765869,"322":-1.884289264678955,"323":-2.707597255706787,"324":3.552598237991333,"325":-1.8224563598632812,"326":0.32348763942718506,"327":0.993400514125824,"328":1.98497474193573,"329":5.467504501342773,"330":4.403212070465088,"331":1.2362258434295654,"332":0.14541149139404297,"333":-3.172625780105591,"334":3.632673740386963,"335":3.8191564083099365,"336":-0.1055666133761406,"337":-1.1352789402008057,"338":0.9453190565109253,"339":1.4530352354049683,"340":0.7252978682518005,"341":5.083050727844238,"342":1.8501602411270142,"343":1.2102841138839722,"344":-2.648191452026367,"345":0.4307749569416046,"346":-1.9274269342422485,"347":4.2113776206970215,"348":0.29844921827316284,"349":-3.8038392066955566,"350":-3.766739845275879,"351":2.5036654472351074,"352":2.1231460571289062,"353":0.24354328215122223,"354":0.06758800894021988,"355":-3.208582639694214,"356":-1.5235539674758911,"357":-0.580166220664978,"358":-0.32570764422416687,"359":5.642362117767334,"360":-0.3192800283432007,"361":-0.8157810568809509,"362":-2.0147712230682373,"363":0.339631587266922,"364":0.9549445509910583,"365":-0.9955923557281494,"366":0.3457195460796356,"367":-0.2264423966407776,"368":-0.1458032727241516,"369":0.7935949563980103,"370":0.4636319875717163,"371":0.10585026443004608,"372":2.4675838947296143,"373":-0.08495819568634033,"374":-0.17718905210494995,"375":-5.4908671379089355,"376":-0.19105149805545807,"377":1.0354059934616089,"378":-6.037166595458984,"379":-1.6555511951446533,"380":1.588834285736084,"381":-1.305288553237915,"382":0.08264941722154617,"383":0.48517853021621704,"384":-1.560722827911377,"385":1.2831085920333862,"386":-0.5103254914283752,"387":2.8071112632751465,"388":-0.3685201108455658,"389":1.2615182399749756,"390":-1.8006298542022705,"391":-6.327086925506592,"392":-1.3665021657943726,"393":3.179976224899292,"394":-1.8119300603866577,"395":-0.853921115398407,"396":-0.6031619906425476,"397":0.6289588809013367,"398":2.910438060760498,"399":4.646778583526611,"400":1.705986499786377,"401":5.8098063468933105,"402":1.4370801448822021,"403":0.5952898859977722,"404":-4.079556941986084,"405":5.165851593017578,"406":-0.0695381686091423,"407":4.497828006744385,"408":3.6322550773620605,"409":-4.682366371154785,"410":4.695186138153076,"411":-0.8887455463409424,"412":1.8139201402664185,"413":-2.7284204959869385,"414":-1.2370960712432861,"415":-0.06994147598743439,"416":0.17152607440948486,"417":-2.3720171451568604,"418":0.5265933871269226,"419":-3.1137218475341797,"420":3.4341044425964355,"421":2.04603910446167,"422":4.294870376586914,"423":3.324587345123291,"424":2.094001054763794,"425":-0.021060192957520485,"426":-0.12732134759426117,"427":4.575231075286865,"428":-4.57122802734375,"429":-0.05235056206583977,"430":-3.450718879699707,"431":4.836836338043213,"432":-0.7898183465003967,"433":2.047410249710083,"434":-0.8655382394790649,"435":-5.2328386306762695,"436":3.3761587142944336,"437":3.6537275314331055,"438":0.1974373608827591,"439":4.342859745025635,"440":-0.09988873451948166,"441":4.295180320739746,"442":-2.804370641708374,"443":-1.3722985982894897,"444":-0.31380102038383484,"445":-0.8577272295951843,"446":0.9227989315986633,"447":0.36163896322250366,"448":-1.9243489503860474,"449":1.304358959197998,"450":3.099296808242798,"451":2.6554343700408936,"452":1.838888168334961,"453":0.5419132113456726,"454":-0.6085613369941711,"455":-0.3202597498893738,"456":2.690307378768921,"457":-5.501070022583008,"458":-3.606935739517212,"459":-2.1319568157196045,"460":0.6385943293571472,"461":-3.0395820140838623,"462":5.832128047943115,"463":-1.6091954708099365,"464":0.6061290502548218,"465":-2.533909797668457,"466":-1.1039824485778809,"467":-1.8724889755249023,"468":-1.044079303741455,"469":-0.22461047768592834,"470":-0.22642606496810913,"471":-5.055023670196533,"472":0.49587953090667725,"473":0.6981908679008484,"474":-1.438259482383728,"475":-0.8056710362434387,"476":2.583709716796875,"477":-6.274821758270264,"478":-1.0746080875396729,"479":-0.04918520897626877,"480":-0.5307081341743469,"481":0.026573047041893005,"482":-1.1544033288955688,"483":-0.058068789541721344,"484":0.5506368279457092,"485":-0.5083982348442078,"486":1.1038260459899902,"487":-0.9563202857971191,"488":0.3201950788497925,"489":0.8878926038742065,"490":0.8828307390213013,"491":2.4086318016052246,"492":-1.3445775508880615,"493":-0.6222736239433289,"494":4.194643020629883,"495":2.7878990173339844,"496":-0.4320363402366638,"497":1.4326220750808716,"498":-1.5803501605987549,"499":0.49439460039138794,"500":3.680349826812744,"501":-3.521608829498291,"502":1.4705359935760498,"503":-0.415770947933197,"504":1.3629539012908936,"505":-0.3549805283546448,"506":2.3597757816314697,"507":1.8610326051712036,"508":0.367097944021225,"509":-2.6622233390808105,"510":-0.1469985991716385,"511":-0.811351478099823,"512":-0.775520920753479,"513":-2.1240572929382324,"514":-2.5062530040740967,"515":-2.1609411239624023,"516":1.3418841361999512,"517":-1.67037832736969,"518":-2.9573919773101807,"519":-0.22282946109771729,"520":-1.1528239250183105,"521":1.9868652820587158,"522":-0.5521710515022278,"523":-5.29052209854126,"524":-2.9650890827178955,"525":-1.1505244970321655,"526":-0.8867562413215637,"527":-0.42952632904052734,"528":2.759136199951172,"529":-1.8757483959197998,"530":0.8047647476196289,"531":-1.5760596990585327,"532":0.957457423210144,"533":0.32145804166793823,"534":0.9592803120613098,"535":-3.0911684036254883,"536":-1.822383165359497,"537":0.8246170282363892,"538":0.1445409208536148,"539":1.176048755645752,"540":-0.5586267709732056,"541":-0.5128180384635925,"542":-2.8442463874816895,"543":1.4830292463302612,"544":-3.7642734050750732,"545":0.3520145118236542,"546":2.1153292655944824,"547":1.533312439918518,"548":-3.7802906036376953,"549":-2.22184157371521,"550":4.176036834716797,"551":1.1084123849868774,"552":-5.480776309967041,"553":1.2390170097351074,"554":0.3824462592601776,"555":-2.079599142074585,"556":0.774206817150116,"557":0.09741721302270889,"558":-0.1120392307639122,"559":0.513441264629364,"560":-1.0154684782028198,"561":-0.967939555644989,"562":-0.3605673611164093,"563":-2.091661214828491,"564":2.524876832962036,"565":-2.1336374282836914,"566":-1.2801952362060547,"567":-2.3949153423309326,"568":-0.7602109909057617,"569":-1.7107635736465454,"570":-0.27861836552619934,"571":0.010206812061369419,"572":-2.7798807621002197,"573":1.0653070211410522,"574":-0.8142009377479553,"575":-2.513594627380371,"576":2.835287570953369,"577":1.434477686882019,"578":0.3943524956703186,"579":-0.9660243988037109}},"outputHidden":{"rows":20,"columns":20,"weights":{"0":1.0410571098327637,"1":7.600301265716553,"2":-5.187318325042725,"3":-7.816423416137695,"4":1.5393073558807373,"5":-4.955859184265137,"6":2.4494242668151855,"7":5.075758934020996,"8":5.394277095794678,"9":0.23752230405807495,"10":1.5631904602050781,"11":0.33057594299316406,"12":1.077515721321106,"13":5.3982343673706055,"14":1.4243990182876587,"15":0.7674334049224854,"16":-5.028733730316162,"17":5.989584445953369,"18":-1.764318585395813,"19":-1.2194302082061768,"20":1.8926095962524414,"21":-2.925203561782837,"22":-5.739914417266846,"23":2.8298933506011963,"24":4.823968887329102,"25":-0.1870977133512497,"26":-3.9922633171081543,"27":-3.6322906017303467,"28":-0.7947633862495422,"29":-5.787768363952637,"30":-0.4890992343425751,"31":-2.17091703414917,"32":0.357198029756546,"33":-3.0994105339050293,"34":-4.814844608306885,"35":9.640159606933594,"36":0.9316645264625549,"37":-5.83925199508667,"38":1.5399950742721558,"39":-5.6866254806518555,"40":-9.336767196655273,"41":-2.4966039657592773,"42":-2.055122137069702,"43":6.471800804138184,"44":-3.8339147567749023,"45":-0.3281039297580719,"46":0.3888806700706482,"47":-0.5575957298278809,"48":4.428353786468506,"49":2.8403308391571045,"50":2.0402913093566895,"51":4.943309783935547,"52":0.2967942953109741,"53":-6.304956436157227,"54":-6.2845916748046875,"55":3.875169515609741,"56":8.004205703735352,"57":-6.474188327789307,"58":7.449417591094971,"59":-0.7544913291931152,"60":10.44571590423584,"61":1.3718167543411255,"62":-0.5789859294891357,"63":-1.805290937423706,"64":-9.19948959350586,"65":-6.068395614624023,"66":-1.2620511054992676,"67":2.4829626083374023,"68":1.3457835912704468,"69":3.0774240493774414,"70":-2.9202001094818115,"71":2.1379876136779785,"72":8.122214317321777,"73":0.4514750838279724,"74":1.600538969039917,"75":4.406634330749512,"76":-4.3030805587768555,"77":-0.3364887237548828,"78":-0.30551984906196594,"79":5.534196376800537,"80":0.17629548907279968,"81":4.717160224914551,"82":4.767105579376221,"83":4.596290111541748,"84":-8.18472671508789,"85":0.11286457628011703,"86":1.1127245426177979,"87":0.01505071111023426,"88":-4.041268825531006,"89":6.0957818031311035,"90":-1.149783730506897,"91":1.6493217945098877,"92":-16.738637924194336,"93":-4.534059047698975,"94":-7.072879791259766,"95":1.729636549949646,"96":-1.4494975805282593,"97":0.7182058095932007,"98":-3.181206226348877,"99":9.126007080078125,"100":4.8675947189331055,"101":0.26747825741767883,"102":4.508232593536377,"103":2.330047369003296,"104":-11.181487083435059,"105":-8.640172004699707,"106":2.9850082397460938,"107":-1.3459892272949219,"108":-2.321239709854126,"109":2.7198140621185303,"110":3.9042575359344482,"111":-1.1178566217422485,"112":5.001136779785156,"113":-1.710197925567627,"114":-4.939976215362549,"115":-13.309414863586426,"116":1.6087956428527832,"117":2.029668092727661,"118":-5.219391822814941,"119":1.855758786201477,"120":-2.5273423194885254,"121":-1.1333346366882324,"122":-8.971463203430176,"123":12.744696617126465,"124":6.0106120109558105,"125":-1.1170029640197754,"126":-0.5190096497535706,"127":2.8851308822631836,"128":7.116696357727051,"129":4.105156421661377,"130":6.004725933074951,"131":1.7922601699829102,"132":2.0820281505584717,"133":-2.5831410884857178,"134":2.187387704849243,"135":11.374395370483398,"136":4.87369966506958,"137":-14.223636627197266,"138":-5.407685279846191,"139":-6.534814357757568,"140":1.006339430809021,"141":-2.4972078800201416,"142":3.498847723007202,"143":-4.306116580963135,"144":-0.9007952213287354,"145":3.17751407623291,"146":1.943910002708435,"147":2.3484299182891846,"148":0.07966053485870361,"149":-0.03772484138607979,"150":3.2859346866607666,"151":2.2908825874328613,"152":-4.231174945831299,"153":1.8246475458145142,"154":-5.856183052062988,"155":0.32465097308158875,"156":-1.8266386985778809,"157":4.1908135414123535,"158":-1.9414530992507935,"159":1.0744297504425049,"160":2.573425531387329,"161":-2.652543544769287,"162":1.372848629951477,"163":2.3485143184661865,"164":-1.0122451782226562,"165":3.714621067047119,"166":-6.1016998291015625,"167":-4.007291316986084,"168":3.4886670112609863,"169":6.107246398925781,"170":-2.0372116565704346,"171":-0.4874439239501953,"172":0.5997185707092285,"173":-0.38206732273101807,"174":0.9937388300895691,"175":-7.072209358215332,"176":3.5965864658355713,"177":-7.633767127990723,"178":-5.160794258117676,"179":-0.43388229608535767,"180":5.70841646194458,"181":4.789143085479736,"182":-2.4924304485321045,"183":4.540189266204834,"184":1.6786375045776367,"185":0.5231104493141174,"186":14.561310768127441,"187":3.804872751235962,"188":-6.695249080657959,"189":2.0303518772125244,"190":-7.715590476989746,"191":-5.478885650634766,"192":1.6977927684783936,"193":-1.6304763555526733,"194":3.5388095378875732,"195":1.999716877937317,"196":-0.254304438829422,"197":-8.84012508392334,"198":-1.7961044311523438,"199":-3.3958141803741455,"200":-3.994785785675049,"201":-5.855142116546631,"202":7.1265869140625,"203":14.790806770324707,"204":1.1817253828048706,"205":-1.5563039779663086,"206":2.5493829250335693,"207":2.1916542053222656,"208":5.564897537231445,"209":-3.0122478008270264,"210":-0.1079980805516243,"211":-7.672473430633545,"212":0.04588422551751137,"213":9.404251098632812,"214":14.953194618225098,"215":-1.0381848812103271,"216":-3.9793386459350586,"217":0.9729936122894287,"218":-0.5533439517021179,"219":0.46542680263519287,"220":-1.4816752672195435,"221":3.2670955657958984,"222":0.7812308073043823,"223":-2.4272677898406982,"224":-0.5687119364738464,"225":-3.193419933319092,"226":-1.759661316871643,"227":-6.857767581939697,"228":-4.470224857330322,"229":2.170997381210327,"230":-9.559483528137207,"231":6.544397830963135,"232":-0.0700116902589798,"233":-2.4121787548065186,"234":4.638920783996582,"235":-5.571524143218994,"236":-1.641411542892456,"237":-3.3673360347747803,"238":-0.8428133130073547,"239":-3.1532936096191406,"240":-3.3716559410095215,"241":9.39102840423584,"242":4.5993757247924805,"243":-8.537824630737305,"244":-8.3989839553833,"245":-9.416448593139648,"246":7.69681453704834,"247":-7.057621002197266,"248":6.735567569732666,"249":10.779756546020508,"250":0.15911602973937988,"251":-0.5582299828529358,"252":-2.6265764236450195,"253":-2.371385335922241,"254":11.585800170898438,"255":2.8011176586151123,"256":4.823061943054199,"257":2.596651077270508,"258":1.2629728317260742,"259":-2.1762731075286865,"260":0.268443763256073,"261":3.4924182891845703,"262":1.3696597814559937,"263":10.580046653747559,"264":-6.3197479248046875,"265":4.874794006347656,"266":2.652277708053589,"267":1.8065924644470215,"268":2.378469467163086,"269":-12.896339416503906,"270":0.7654855847358704,"271":-7.585503578186035,"272":-4.997766494750977,"273":-1.3205815553665161,"274":-5.138588905334473,"275":0.25265952944755554,"276":-2.871250867843628,"277":-1.621183156967163,"278":4.5350542068481445,"279":3.409482479095459,"280":-3.0019137859344482,"281":-2.6615684032440186,"282":1.8436381816864014,"283":1.627256155014038,"284":-7.286341190338135,"285":8.38611125946045,"286":-2.217996835708618,"287":8.340333938598633,"288":1.4888075590133667,"289":9.659943580627441,"290":-2.8257269859313965,"291":6.075844764709473,"292":3.4553134441375732,"293":-0.5956342816352844,"294":6.635931015014648,"295":-3.2179112434387207,"296":-7.334434509277344,"297":-4.45546293258667,"298":2.8901097774505615,"299":-5.351938724517822,"300":-4.083837985992432,"301":-4.688371181488037,"302":-1.8507503271102905,"303":1.3107837438583374,"304":0.057405754923820496,"305":4.247523307800293,"306":-1.8580825328826904,"307":-3.0985822677612305,"308":-7.058258533477783,"309":-1.0507107973098755,"310":2.6579790115356445,"311":-1.7465187311172485,"312":2.4799067974090576,"313":-2.46309232711792,"314":4.636227130889893,"315":-0.3710773289203644,"316":6.850569248199463,"317":3.674703598022461,"318":11.349571228027344,"319":1.7631264925003052,"320":-2.1919543743133545,"321":-9.645918846130371,"322":-4.446216106414795,"323":-0.9096090793609619,"324":-1.1207427978515625,"325":-3.435530424118042,"326":-6.397040367126465,"327":5.35697603225708,"328":-2.387631893157959,"329":-3.1854372024536133,"330":-0.5645573139190674,"331":1.3732764720916748,"332":0.47085967659950256,"333":-2.019380807876587,"334":1.891671895980835,"335":4.514881610870361,"336":1.5633662939071655,"337":-1.2526673078536987,"338":-1.8052394390106201,"339":-1.2709553241729736,"340":3.4393534660339355,"341":-6.612011432647705,"342":-4.748739719390869,"343":-1.984461784362793,"344":-0.1433773785829544,"345":9.606223106384277,"346":-4.343426704406738,"347":1.9305471181869507,"348":-0.1465454250574112,"349":-5.5471367835998535,"350":-5.247312545776367,"351":-3.097071409225464,"352":4.31320333480835,"353":-14.355137825012207,"354":2.0097720623016357,"355":-3.2495086193084717,"356":-7.255368232727051,"357":2.6610114574432373,"358":-5.24878454208374,"359":9.997696876525879,"360":1.1120458841323853,"361":-5.123991966247559,"362":-3.4173014163970947,"363":-8.961466789245605,"364":10.40932846069336,"365":6.649030685424805,"366":4.311396598815918,"367":2.0918381214141846,"368":-7.482898712158203,"369":20.005290985107422,"370":-2.1746344566345215,"371":1.2701876163482666,"372":-2.066551685333252,"373":1.0697016716003418,"374":3.993487596511841,"375":4.019291400909424,"376":-8.162343978881836,"377":17.205835342407227,"378":-9.2693510055542,"379":8.31058120727539,"380":-0.43920865654945374,"381":-0.01972346566617489,"382":-4.887151718139648,"383":-12.449167251586914,"384":8.698863983154297,"385":-1.6640613079071045,"386":1.4238245487213135,"387":4.375282287597656,"388":-4.020187854766846,"389":7.75733757019043,"390":-9.797657012939453,"391":-1.6873652935028076,"392":-1.2114150524139404,"393":-7.553946495056152,"394":2.590411901473999,"395":5.425551414489746,"396":-1.9171032905578613,"397":6.37756872177124,"398":-1.8282248973846436,"399":-0.9693290591239929}},"outputBias":{"rows":20,"columns":1,"weights":{"0":-0.9703948497772217,"1":0.0064133331179618835,"2":0.334793359041214,"3":-3.2431180477142334,"4":4.361619472503662,"5":-0.35269075632095337,"6":-0.651799201965332,"7":-2.1069869995117188,"8":-1.592200517654419,"9":0.39381736516952515,"10":-3.650780200958252,"11":1.913164496421814,"12":-0.3341798186302185,"13":-2.8195667266845703,"14":-4.459902286529541,"15":0.17804431915283203,"16":-1.9306409358978271,"17":1.2363237142562866,"18":-0.6672021150588989,"19":-1.29463529586792}},"cellActivationMatrix":{"rows":20,"columns":29,"weights":{"0":1.150933861732483,"1":-0.7060224413871765,"2":1.798531413078308,"3":-0.1353267878293991,"4":-1.3680981397628784,"5":-0.778846025466919,"6":-2.7046892642974854,"7":1.0403647422790527,"8":-1.8445159196853638,"9":0.05226781591773033,"10":2.0427539348602295,"11":-1.5227614641189575,"12":-1.6596840620040894,"13":2.567795753479004,"14":0.38583168387413025,"15":-1.7096705436706543,"16":-1.8490115404129028,"17":0.6830697655677795,"18":1.2151598930358887,"19":-2.033752679824829,"20":0.851980447769165,"21":-1.7900904417037964,"22":1.267505168914795,"23":3.72650146484375,"24":-1.1534310579299927,"25":-0.16619282960891724,"26":0.26341375708580017,"27":-3.291809558868408,"28":0.8494643568992615,"29":2.430649757385254,"30":1.3870773315429688,"31":4.261144161224365,"32":2.7615928649902344,"33":1.3003315925598145,"34":-2.541510581970215,"35":-1.1939420700073242,"36":0.09413141012191772,"37":-0.2568208575248718,"38":1.7783807516098022,"39":4.423984050750732,"40":3.012425422668457,"41":-1.235823631286621,"42":1.95192289352417,"43":1.1007378101348877,"44":0.07626664638519287,"45":3.911721706390381,"46":-1.3409316539764404,"47":1.1662817001342773,"48":-0.0007009651162661612,"49":3.675757884979248,"50":2.3640711307525635,"51":-4.138859272003174,"52":1.3748618364334106,"53":0.38028836250305176,"54":-0.9390400648117065,"55":2.384493827819824,"56":-3.3564774990081787,"57":3.1082346439361572,"58":-1.6528041362762451,"59":2.18461012840271,"60":0.07653956860303879,"61":0.35027778148651123,